<?xml version="1.0"?>
<opencv_storage>
<my_svm type_id="opencv-ml-svm">
  <svm_type>C_SVC</svm_type>
  <kernel><type>RBF</type>
    <gamma>1.</gamma></kernel>
  <C>1.</C>
  <term_criteria><epsilon>1.1920928955078125e-07</epsilon>
    <iterations>1000</iterations></term_criteria>
  <var_all>4</var_all>
  <var_count>4</var_count>
  <class_count>4</class_count>
  <class_labels type_id="opencv-matrix">
    <rows>1</rows>
    <cols>4</cols>
    <dt>i</dt>
    <data>
      0 1 2 3</data></class_labels>
  <sv_total>4076</sv_total>
  <support_vectors>
    <_>
      0. 0. 0. 0.</_>
    <_>
      5.75279999e+01 1.63199997e+01 2.24400005e+01 3.26399994e+01</_>
    <_>
      1.67280006e+01 9.46559982e+01 9.01679993e+01 8.52720032e+01</_>
    <_>
      1.50959997e+01 1.67280006e+01 1.55039997e+01 1.30559998e+01</_>
    <_>
      2.93759995e+01 2.69279995e+01 2.65200005e+01 1.50959997e+01</_>
    <_>
      1.12199997e+02 1.30151993e+02 1.30559998e+02 9.34319992e+01</_>
    <_>
      1.46879997e+01 1.26479998e+01 3.30480003e+01 4.16160011e+01</_>
    <_>
      2.61119995e+01 2.32560005e+01 1.99920006e+01 4.77360001e+01</_>
    <_>
      1.95839996e+01 7.46640015e+01 6.40559998e+01 4.48800011e+01</_>
    <_>
      4.12080002e+01 1.06080002e+02 7.62959976e+01 1.17503998e+02</_>
    <_>
      9.79199982e+01 1.17096001e+02 1.18727997e+02 1.07304001e+02</_>
    <_>
      1.22400002e+02 6.52799988e+01 1.29335999e+02 3.26399994e+01</_>
    <_>
      1.19543999e+02 1.21584000e+02 1.22807999e+02 1.27704002e+02</_>
    <_>
      1.16688004e+02 9.62880020e+01 1.26071999e+02 9.22080002e+01</_>
    <_>
      2.28479996e+01 2.36639996e+01 5.71199989e+00 8.15999985e+00</_>
    <_>
      4.20239983e+01 7.58880005e+01 3.79440002e+01 51.</_>
    <_>
      1.05264000e+02 1.26888000e+02 1.30559998e+02 7.71119995e+01</_>
    <_>
      4.48799992e+00 8.81279984e+01 8.11920013e+01 8.56800003e+01</_>
    <_>
      3.54959984e+01 2.36639996e+01 3.75359993e+01 2.36639996e+01</_>
    <_>
      2.32560005e+01 8.97599983e+00 1.46879997e+01 8.15999985e+00</_>
    <_>
      1.18320000e+02 1.28927994e+02 4.28400002e+01 4.07999992e+00</_>
    <_>
      1.42799997e+01 1.59119997e+01 3.67200012e+01 4.97760010e+01</_>
    <_>
      1.38719997e+01 9.79199982e+01 9.99599991e+01 6.77279968e+01</_>
    <_>
      4.07999992e+00 1.71359997e+01 1.18319998e+01 4.20239983e+01</_>
    <_>
      2.97840004e+01 9.09840012e+01 1.00776001e+02 6.60960007e+01</_>
    <_>
      0. 2.93759995e+01 7.34399986e+00 9.54720001e+01</_>
    <_>
      1.09751999e+02 6.20159988e+01 8.15999985e+00 7.75199986e+00</_>
    <_>
      1.59119997e+01 1.50959997e+01 8.15999985e+00 6.52799988e+00</_>
    <_>
      9.83280029e+01 1.18727997e+02 1.28927994e+02 1.29335999e+02</_>
    <_>
      1.59119997e+01 9.75120010e+01 9.71039963e+01 8.24160004e+01</_>
    <_>
      4.81440010e+01 3.46800003e+01 2.40720005e+01 1.14239998e+01</_>
    <_>
      9.66959991e+01 1.04856003e+02 1.03632004e+02 1.05264000e+02</_>
    <_>
      1.13424004e+02 1.30559998e+02 1.07711998e+02 9.01679993e+01</_>
    <_>
      1.09751999e+02 1.28520004e+02 1.21991997e+02 1.12608002e+02</_>
    <_>
      9.62880020e+01 9.46559982e+01 9.13919983e+01 9.99599991e+01</_>
    <_>
      3.67199993e+00 7.67040024e+01 7.26240005e+01 9.13919983e+01</_>
    <_>
      3.26399994e+00 9.75120010e+01 8.24160004e+01 8.32320023e+01</_>
    <_>
      8.89440002e+01 1.00367996e+02 6.73199997e+01 9.83280029e+01</_>
    <_>
      8.24160004e+01 1.13832001e+02 1.26480003e+02 1.19543999e+02</_>
    <_>
      1.22400002e+02 1.30559998e+02 1.30559998e+02 1.39128006e+02</_>
    <_>
      7.75199966e+01 2.93759995e+01 7.30319977e+01 1.13015999e+02</_>
    <_>
      6.44639969e+01 7.46640015e+01 1.03223999e+02 2.44799995e+01</_>
    <_>
      1.22400002e+02 1.24848000e+02 1.02407997e+02 1.09751999e+02</_>
    <_>
      1.06079998e+01 0. 0. 0.</_>
    <_>
      3.46800003e+01 1.87679996e+01 4.16160011e+01 1.46879997e+01</_>
    <_>
      5.79360008e+01 6.89520035e+01 9.62880020e+01 9.09840012e+01</_>
    <_>
      1.38719997e+01 5.71199989e+00 1.55039997e+01 7.34399986e+00</_>
    <_>
      5.46720009e+01 4.69199982e+01 3.67200012e+01 2.12159996e+01</_>
    <_>
      8.56799984e+00 3.14160004e+01 3.99840012e+01 3.83520012e+01</_>
    <_>
      2.48880005e+01 2.28479996e+01 1.99920006e+01 2.48880005e+01</_>
    <_>
      3.63120003e+01 8.60879974e+01 8.69039993e+01 7.22160034e+01</_>
    <_>
      7.01760025e+01 3.14160004e+01 8.15999985e+00 4.65120010e+01</_>
    <_>
      1.22400002e+02 1.28520004e+02 1.22400002e+02 8.32320023e+01</_>
    <_>
      1.79519997e+01 4.07999992e+00 2.03999996e+01 5.71199989e+00</_>
    <_>
      2.16240005e+01 1.03632004e+02 8.07839966e+01 7.26240005e+01</_>
    <_>
      1.08120003e+02 1.29744003e+02 1.28927994e+02 1.11384003e+02</_>
    <_>
      9.50640030e+01 1.67280006e+01 7.79280014e+01 1.14239998e+01</_>
    <_>
      1.67280006e+01 1.03632004e+02 9.54720001e+01 6.89520035e+01</_>
    <_>
      9.79199982e+00 9.71039963e+01 9.09840012e+01 7.30319977e+01</_>
    <_>
      9.66959991e+01 1.03632004e+02 1.16279999e+02 1.24848000e+02</_>
    <_>
      1.18320000e+02 1.17912003e+02 1.14239998e+02 1.36272003e+02</_>
    <_>
      1.22400002e+02 1.02407997e+02 1.30559998e+02 7.83359985e+01</_>
    <_>
      1.95839996e+01 9.71039963e+01 8.81279984e+01 8.03759995e+01</_>
    <_>
      3.59039993e+01 6.11999989e+00 1.71359997e+01 2.03999996e+00</_>
    <_>
      3.18239994e+01 4.07999992e+01 2.69279995e+01 2.61119995e+01</_>
    <_>
      1.19543999e+02 1.30559998e+02 1.13015999e+02 7.38479996e+01</_>
    <_>
      1.03223999e+02 5.42639999e+01 8.15999985e+01 6.73199997e+01</_>
    <_>
      2.20319996e+01 9.05759964e+01 8.36399994e+01 6.36479988e+01</_>
    <_>
      1.05264000e+02 4.61040001e+01 1.55039997e+01 2.44799995e+00</_>
    <_>
      2.85599995e+01 2.69279995e+01 3.26399994e+01 2.28479996e+01</_>
    <_>
      2.24400005e+01 1.75440006e+01 1.46879997e+01 1.59119997e+01</_>
    <_>
      9.38399963e+01 1.17503998e+02 1.24848000e+02 1.23216003e+02</_>
    <_>
      1.26479998e+01 1.71359997e+01 2.20319996e+01 2.61119995e+01</_>
    <_>
      8.15999985e-01 3.26399994e+00 4.73279991e+01 1.19136002e+02</_>
    <_>
      6.12000008e+01 5.91599998e+01 5.79360008e+01 1.08528000e+02</_>
    <_>
      5.75279999e+01 9.87360001e+01 9.38399963e+01 1.63199997e+01</_>
    <_>
      2.48880005e+01 6.11999989e+00 2.16240005e+01 6.93599987e+00</_>
    <_>
      3.95760002e+01 5.01839981e+01 3.30480003e+01 1.01999998e+01</_>
    <_>
      2.24400005e+01 9.79199982e+01 1.07711998e+02 7.26240005e+01</_>
    <_>
      7.71119995e+01 1.19952003e+02 1.30559998e+02 1.38311996e+02</_>
    <_>
      1.21991997e+02 1.16688004e+02 1.28927994e+02 5.91599998e+01</_>
    <_>
      9.13919983e+01 1.25664001e+02 1.24848000e+02 1.14239998e+02</_>
    <_>
      1.18319998e+01 2.44799995e+00 0. 1.42799997e+01</_>
    <_>
      1.22400002e+02 1.06080002e+02 1.06896004e+02 1.39128006e+02</_>
    <_>
      3.67200012e+01 2.73360004e+01 2.73360004e+01 9.95520020e+01</_>
    <_>
      1.46879997e+01 1.30559998e+01 9.79199982e+00 1.46879997e+01</_>
    <_>
      6.07919998e+01 7.75199966e+01 1.21991997e+02 1.30968002e+02</_>
    <_>
      6.52799988e+00 9.54720001e+01 8.81279984e+01 7.99680023e+01</_>
    <_>
      9.79199982e+00 1.67280006e+01 1.50959997e+01 3.01919994e+01</_>
    <_>
      1.46879997e+01 2.44799995e+00 1.14239998e+01 3.26399994e+00</_>
    <_>
      1.67280006e+01 2.32560005e+01 6.97679977e+01 3.59039993e+01</_>
    <_>
      6.89520035e+01 2.28479996e+01 1.46879997e+01 3.18239994e+01</_>
    <_>
      1.22400002e+02 1.30559998e+02 1.16688004e+02 1.03223999e+02</_>
    <_>
      3.22319984e+01 4.20239983e+01 4.81440010e+01 3.63120003e+01</_>
    <_>
      1.12608002e+02 1.30151993e+02 1.26480003e+02 8.64960022e+01</_>
    <_>
      1.08528000e+02 1.21584000e+02 1.21584000e+02 1.36679993e+02</_>
    <_>
      4.97760010e+01 1.00776001e+02 1.13832001e+02 1.14239998e+02</_>
    <_>
      1.79519997e+01 3.63120003e+01 3.46800003e+01 4.16160011e+01</_>
    <_>
      1.13424004e+02 1.10975998e+02 1.10568001e+02 1.35455994e+02</_>
    <_>
      1.01592003e+02 1.10975998e+02 1.15463997e+02 1.26888000e+02</_>
    <_>
      1.22400002e+02 1.03632004e+02 1.07304001e+02 8.77200012e+01</_>
    <_>
      4.44720001e+01 9.62880020e+01 1.30559998e+02 1.39128006e+02</_>
    <_>
      9.26159973e+01 2.44799995e+01 1.03223999e+02 7.87440033e+01</_>
    <_>
      8.36399994e+01 1.23624001e+02 1.30559998e+02 1.31783997e+02</_>
    <_>
      2.81520004e+01 1.18319998e+01 2.48880005e+01 1.01999998e+01</_>
    <_>
      9.18000031e+01 6.48720016e+01 6.52799988e+00 0.</_>
    <_>
      7.71119995e+01 3.10079994e+01 2.73360004e+01 3.79440002e+01</_>
    <_>
      1.21584000e+02 8.77200012e+01 1.30559998e+02 7.87440033e+01</_>
    <_>
      1.14239998e+01 2.28479996e+01 0. 2.77439995e+01</_>
    <_>
      9.50640030e+01 3.34560013e+01 2.61119995e+01 8.77200012e+01</_>
    <_>
      3.06000004e+01 6.52799988e+00 0. 0.</_>
    <_>
      1.21584000e+02 1.30559998e+02 1.21176003e+02 1.19136002e+02</_>
    <_>
      1.06079998e+01 1.20360001e+02 1.01183998e+02 9.46559982e+01</_>
    <_>
      0. 6.20159988e+01 0. 8.15999985e+01</_>
    <_>
      1.10975998e+02 1.28520004e+02 1.13015999e+02 8.64960022e+01</_>
    <_>
      1.07304001e+02 2.97840004e+01 1.11384003e+02 7.09919968e+01</_>
    <_>
      3.67199993e+00 9.42480011e+01 8.48639984e+01 7.46640015e+01</_>
    <_>
      1.19952003e+02 1.30559998e+02 1.27295998e+02 1.09344002e+02</_>
    <_>
      8.15999985e+00 2.32560005e+01 8.56799984e+00 3.06000004e+01</_>
    <_>
      8.73119965e+01 4.52879982e+01 7.38479996e+01 7.46640015e+01</_>
    <_>
      1.38719997e+01 1.99920006e+01 2.93759995e+01 5.79360008e+01</_>
    <_>
      1.13424004e+02 1.07711998e+02 1.26888000e+02 9.54720001e+01</_>
    <_>
      6.56880035e+01 9.71039963e+01 9.09840012e+01 2.57040005e+01</_>
    <_>
      1.01183998e+02 1.18727997e+02 1.26480003e+02 1.39128006e+02</_>
    <_>
      102. 6.77279968e+01 2.03999996e+00 0.</_>
    <_>
      1.13015999e+02 1.13015999e+02 1.26480003e+02 9.87360001e+01</_>
    <_>
      1.67280006e+01 2.73360004e+01 9.54720001e+01 1.33824005e+02</_>
    <_>
      51. 6.48720016e+01 1.16688004e+02 1.18727997e+02</_>
    <_>
      1.09751999e+02 3.67200012e+01 9.09840012e+01 7.22160034e+01</_>
    <_>
      1.04447998e+02 5.95680008e+01 5.71199989e+00 1.22399998e+00</_>
    <_>
      6.11999989e+00 2.32560005e+01 1.55039997e+01 2.77439995e+01</_>
    <_>
      8.11920013e+01 7.87440033e+01 9.26159973e+01 4.97760010e+01</_>
    <_>
      1.04856003e+02 1.03223999e+02 1.07711998e+02 1.26480003e+02</_>
    <_>
      1.26479998e+01 1.18319998e+01 1.22399998e+01 8.97599983e+00</_>
    <_>
      3.18239994e+01 1.63199997e+01 3.63120003e+01 5.42639999e+01</_>
    <_>
      4.40639992e+01 2.12159996e+01 2.89680004e+01 1.10159998e+01</_>
    <_>
      8.77200012e+01 1.13832001e+02 1.12199997e+02 1.03632004e+02</_>
    <_>
      2.77439995e+01 1.30151993e+02 3.83520012e+01 1.37904007e+02</_>
    <_>
      9.79199982e+00 2.40720005e+01 1.75440006e+01 3.87599983e+01</_>
    <_>
      4.03919983e+01 1.06079998e+01 1.10159998e+01 4.03919983e+01</_>
    <_>
      8.48639984e+01 1.24031998e+02 1.05671997e+02 1.21176003e+02</_>
    <_>
      1.38719997e+01 1.38719997e+01 2.61119995e+01 3.63120003e+01</_>
    <_>
      1.10568001e+02 1.30559998e+02 1.22400002e+02 7.99680023e+01</_>
    <_>
      1.08528000e+02 6.97679977e+01 6.24239998e+01 8.97600021e+01</_>
    <_>
      1.22400002e+02 1.30559998e+02 1.08528000e+02 8.56800003e+01</_>
    <_>
      9.95520020e+01 9.87360001e+01 1.06487999e+02 1.17096001e+02</_>
    <_>
      3.26399994e+01 7.22160034e+01 5.75279999e+01 6.93600006e+01</_>
    <_>
      5.91599998e+01 7.95599976e+01 8.69039993e+01 3.06000004e+01</_>
    <_>
      2.97840004e+01 9.79199982e+00 1.38719997e+01 4.48799992e+00</_>
    <_>
      1.79519997e+01 1.95839996e+01 1.55039997e+01 1.95839996e+01</_>
    <_>
      6.24239998e+01 1.09344002e+02 8.52720032e+01 3.18239994e+01</_>
    <_>
      3.50880013e+01 1.14239998e+02 1.08935997e+02 1.20360001e+02</_>
    <_>
      1.12199997e+02 1.22400002e+02 1.30559998e+02 7.38479996e+01</_>
    <_>
      1.15056000e+02 1.29744003e+02 1.16279999e+02 9.05759964e+01</_>
    <_>
      1.12608002e+02 1.30151993e+02 1.15872002e+02 1.01183998e+02</_>
    <_>
      7.75199986e+00 1.95839996e+01 2.12159996e+01 4.24319992e+01</_>
    <_>
      6.07919998e+01 7.67040024e+01 9.87360001e+01 1.91760006e+01</_>
    <_>
      5.18160019e+01 3.38639984e+01 1.03223999e+02 1.31783997e+02</_>
    <_>
      2.89680004e+01 2.61119995e+01 1.79519997e+01 1.75440006e+01</_>
    <_>
      2.40720005e+01 2.44799995e+01 2.28479996e+01 1.75440006e+01</_>
    <_>
      9.38399963e+01 1.27295998e+02 1.29744003e+02 1.10975998e+02</_>
    <_>
      7.99680023e+01 1.10975998e+02 1.20767998e+02 1.31783997e+02</_>
    <_>
      1.79519997e+01 6.85439987e+01 2.03999996e+00 0.</_>
    <_>
      1.95839996e+01 8.85360031e+01 9.62880020e+01 1.36272003e+02</_>
    <_>
      1.03632004e+02 3.01919994e+01 3.95760002e+01 1.25255997e+02</_>
    <_>
      1.75440006e+01 9.01679993e+01 102. 7.95599976e+01</_>
    <_>
      1.06896004e+02 1.26888000e+02 1.16688004e+02 9.18000031e+01</_>
    <_>
      6.52799988e+00 9.05759964e+01 8.89440002e+01 7.58880005e+01</_>
    <_>
      6.52799988e+00 4.16160011e+01 9.38399982e+00 9.42480011e+01</_>
    <_>
      1.15872002e+02 1.29744003e+02 1.07304001e+02 7.67040024e+01</_>
    <_>
      3.14160004e+01 4.69199982e+01 4.40639992e+01 3.22319984e+01</_>
    <_>
      7.67040024e+01 1.22807999e+02 1.17096001e+02 1.32600006e+02</_>
    <_>
      102. 7.22160034e+01 9.75120010e+01 3.67200012e+01</_>
    <_>
      3.10079994e+01 8.07839966e+01 9.71039963e+01 7.42559967e+01</_>
    <_>
      1.22400002e+02 1.30559998e+02 1.01592003e+02 7.67040024e+01</_>
    <_>
      8.97599983e+00 1.91760006e+01 7.99680023e+01 7.83359985e+01</_>
    <_>
      6.07919998e+01 2.52959995e+01 4.48799992e+00 3.18239994e+01</_>
    <_>
      51. 8.93519974e+01 9.62880020e+01 1.42799997e+01</_>
    <_>
      7.79280014e+01 1.27704002e+02 1.30559998e+02 1.39128006e+02</_>
    <_>
      1.11384003e+02 1.30559998e+02 1.29335999e+02 1.00367996e+02</_>
    <_>
      3.10079994e+01 8.97600021e+01 9.95520020e+01 9.58799973e+01</_>
    <_>
      9.75120010e+01 6.28320007e+01 5.91599998e+01 8.44560013e+01</_>
    <_>
      2.28479996e+01 1.87679996e+01 2.16240005e+01 2.08080006e+01</_>
    <_>
      6.97679977e+01 0. 0. 0.</_>
    <_>
      8.56800003e+01 1.30559998e+02 1.29744003e+02 1.20767998e+02</_>
    <_>
      1.01592003e+02 4.24319992e+01 2.89680004e+01 1.03632004e+02</_>
    <_>
      2.77439995e+01 9.91439972e+01 7.87440033e+01 7.05839996e+01</_>
    <_>
      2.12159996e+01 2.03999996e+01 1.38719997e+01 1.01999998e+01</_>
    <_>
      5.01839981e+01 1.63199997e+01 1.38719997e+01 3.34560013e+01</_>
    <_>
      1.34639997e+01 1.99920006e+01 2.24400005e+01 4.73279991e+01</_>
    <_>
      1.22400002e+02 1.07711998e+02 1.30559998e+02 1.12199997e+02</_>
    <_>
      1.14648003e+02 1.00367996e+02 1.05264000e+02 1.35455994e+02</_>
    <_>
      1.10975998e+02 1.12608002e+02 1.19952003e+02 1.10160004e+02</_>
    <_>
      7.95599976e+01 3.01919994e+01 4.20239983e+01 1.26888000e+02</_>
    <_>
      9.66959991e+01 1.26480003e+02 1.30151993e+02 1.21991997e+02</_>
    <_>
      2.44799995e+00 3.54959984e+01 3.54959984e+01 9.75120010e+01</_>
    <_>
      3.26399994e+01 3.30480003e+01 2.52959995e+01 9.38399963e+01</_>
    <_>
      6.40559998e+01 8.52720032e+01 8.81279984e+01 9.38399982e+00</_>
    <_>
      1.18727997e+02 9.87360001e+01 1.28112000e+02 1.00776001e+02</_>
    <_>
      1.16688004e+02 4.56959991e+01 9.62880020e+01 6.12000008e+01</_>
    <_>
      1.09751999e+02 1.30151993e+02 1.18727997e+02 1.06080002e+02</_>
    <_>
      2.16240005e+01 1.10159998e+01 2.40720005e+01 1.22399998e+01</_>
    <_>
      9.22080002e+01 9.42480011e+01 1.22399998e+00 0.</_>
    <_>
      1.71359997e+01 0. 0. 0.</_>
    <_>
      6.44639969e+01 8.89440002e+01 9.05759964e+01 1.04856003e+02</_>
    <_>
      6.89520035e+01 8.69039993e+01 5.50800018e+01 4.40639992e+01</_>
    <_>
      9.42480011e+01 1.13015999e+02 9.26159973e+01 1.35048004e+02</_>
    <_>
      8.36399994e+01 2.57040005e+01 9.79199982e+01 8.28239975e+01</_>
    <_>
      2.24400005e+01 3.10079994e+01 1.22399998e+01 6.20159988e+01</_>
    <_>
      4.44720001e+01 1.63199997e+01 3.79440002e+01 1.30559998e+01</_>
    <_>
      1.04040001e+02 1.04447998e+02 1.24031998e+02 1.37496002e+02</_>
    <_>
      1.15872002e+02 1.29744003e+02 1.11384003e+02 8.28239975e+01</_>
    <_>
      4.12080002e+01 4.61040001e+01 4.07999992e-01 1.63199997e+00</_>
    <_>
      1.04040001e+02 5.34480019e+01 1.10159998e+01 3.26399994e+00</_>
    <_>
      2.77439995e+01 3.95760002e+01 1.04040001e+02 1.02816002e+02</_>
    <_>
      1.34639997e+01 1.02816002e+02 7.67040024e+01 7.09919968e+01</_>
    <_>
      4.12080002e+01 2.48880005e+01 8.15999985e-01 0.</_>
    <_>
      2.48880005e+01 0. 0. 0.</_>
    <_>
      2.08080006e+01 4.44720001e+01 2.48880005e+01 6.56880035e+01</_>
    <_>
      7.38479996e+01 8.56799984e+00 1.06896004e+02 0.</_>
    <_>
      2.40720005e+01 8.15999985e+01 9.34319992e+01 7.99680023e+01</_>
    <_>
      1.03632004e+02 1.21584000e+02 1.23624001e+02 1.09751999e+02</_>
    <_>
      1.08935997e+02 7.14000015e+01 6.20159988e+01 7.30319977e+01</_>
    <_>
      1.04040001e+02 8.28239975e+01 7.18079987e+01 9.54720001e+01</_>
    <_>
      6.85439987e+01 1.01183998e+02 1.01183998e+02 1.11384003e+02</_>
    <_>
      3.10079994e+01 9.26159973e+01 9.05759964e+01 7.67040024e+01</_>
    <_>
      4.97760010e+01 6.40559998e+01 9.75120010e+01 9.54720001e+01</_>
    <_>
      9.46559982e+01 1.10975998e+02 1.27704002e+02 1.32192001e+02</_>
    <_>
      5.34480019e+01 1.00367996e+02 7.54800034e+01 1.20360001e+02</_>
    <_>
      5.58959999e+01 6.40559998e+01 6.93600006e+01 1.25664001e+02</_>
    <_>
      1.22400002e+02 1.16279999e+02 1.06487999e+02 8.20080032e+01</_>
    <_>
      1.75440006e+01 9.79199982e+01 1.00776001e+02 7.34400024e+01</_>
    <_>
      6.11999989e+00 1.18319998e+01 2.36639996e+01 2.89680004e+01</_>
    <_>
      9.42480011e+01 6.73199997e+01 1.12199997e+02 9.71039963e+01</_>
    <_>
      7.34399986e+00 6.93599987e+00 3.38639984e+01 5.14080009e+01</_>
    <_>
      1.83600006e+01 5.91599998e+01 7.34400024e+01 4.89599991e+01</_>
    <_>
      6.93599987e+00 2.12159996e+01 2.44799995e+01 3.22319984e+01</_>
    <_>
      9.34319992e+01 1.17912003e+02 1.05671997e+02 1.19136002e+02</_>
    <_>
      6.81360016e+01 1.12199997e+02 9.91439972e+01 1.17096001e+02</_>
    <_>
      1.16688004e+02 7.30319977e+01 9.09840012e+01 4.65120010e+01</_>
    <_>
      3.26399994e+00 3.18239994e+01 1.42799997e+01 9.87360001e+01</_>
    <_>
      1.08528000e+02 1.26888000e+02 1.19952003e+02 9.79199982e+01</_>
    <_>
      9.26159973e+01 1.21584000e+02 1.30559998e+02 1.35863998e+02</_>
    <_>
      1.01999998e+01 0. 7.75199986e+00 2.40720005e+01</_>
    <_>
      6.56880035e+01 8.36399994e+01 7.83359985e+01 1.30559998e+01</_>
    <_>
      7.42559967e+01 7.42559967e+01 5.34480019e+01 1.14648003e+02</_>
    <_>
      4.32480011e+01 7.75199986e+00 2.08080006e+01 1.42799997e+01</_>
    <_>
      1.30559998e+01 2.48880005e+01 2.81520004e+01 5.38559990e+01</_>
    <_>
      9.09840012e+01 1.22400002e+02 1.19952003e+02 1.12199997e+02</_>
    <_>
      1.12199997e+02 1.06896004e+02 1.23216003e+02 1.02816002e+02</_>
    <_>
      1.13832001e+02 7.50719986e+01 2.89680004e+01 7.62959976e+01</_>
    <_>
      1.08935997e+02 2.40720005e+01 1.04856003e+02 6.93600006e+01</_>
    <_>
      9.54720001e+01 1.18320000e+02 1.21176003e+02 1.13015999e+02</_>
    <_>
      3.34560013e+01 1.01592003e+02 2.03999996e+00 1.19136002e+02</_>
    <_>
      1.10160004e+02 1.15872002e+02 1.15463997e+02 1.20767998e+02</_>
    <_>
      6.97679977e+01 2.16240005e+01 3.38639984e+01 3.14160004e+01</_>
    <_>
      1.18319998e+01 1.03632004e+02 8.69039993e+01 8.07839966e+01</_>
    <_>
      1.59119997e+01 3.30480003e+01 1.71359997e+01 3.01919994e+01</_>
    <_>
      4.07999992e-01 1.01999998e+01 2.93759995e+01 1.30968002e+02</_>
    <_>
      6.97679977e+01 0. 9.05759964e+01 2.85599995e+00</_>
    <_>
      4.12080002e+01 2.24400005e+01 1.10159998e+01 1.91760006e+01</_>
    <_>
      1.17912003e+02 9.54720001e+01 6.89520035e+01 5.63040009e+01</_>
    <_>
      5.58959999e+01 9.79199982e+00 3.79440002e+01 3.42719994e+01</_>
    <_>
      4.81440010e+01 0. 6.11999989e+00 5.54879990e+01</_>
    <_>
      2.89680004e+01 5.34480019e+01 7.34400024e+01 1.27295998e+02</_>
    <_>
      1.15872002e+02 1.13832001e+02 1.24031998e+02 1.08120003e+02</_>
    <_>
      7.75199986e+00 1.75440006e+01 3.71279984e+01 5.14080009e+01</_>
    <_>
      1.01999998e+01 9.87360001e+01 8.36399994e+01 7.34400024e+01</_>
    <_>
      1.38719997e+01 2.32560005e+01 2.52959995e+01 2.48880005e+01</_>
    <_>
      4.73279991e+01 4.56959991e+01 3.10079994e+01 7.30319977e+01</_>
    <_>
      9.01679993e+01 6.89520035e+01 0. 0.</_>
    <_>
      5.05919991e+01 8.97600021e+01 1.30559998e+02 1.39128006e+02</_>
    <_>
      3.22319984e+01 2.03999996e+01 1.83600006e+01 1.01999998e+01</_>
    <_>
      2.77439995e+01 6.28320007e+01 4.32480011e+01 1.02816002e+02</_>
    <_>
      4.07999992e+01 1.14239998e+01 2.24400005e+01 5.71199989e+00</_>
    <_>
      3.87599983e+01 4.28400002e+01 2.16240005e+01 1.79519997e+01</_>
    <_>
      2.77439995e+01 4.24319992e+01 3.67200012e+01 7.22160034e+01</_>
    <_>
      1.05671997e+02 1.07304001e+02 9.71039963e+01 1.29744003e+02</_>
    <_>
      1.15872002e+02 8.28239975e+01 9.99599991e+01 102.</_>
    <_>
      1.01999998e+01 9.38399982e+00 0. 0.</_>
    <_>
      1.18320000e+02 1.11384003e+02 1.27704002e+02 1.13832001e+02</_>
    <_>
      9.79199982e+00 0. 0. 5.91599998e+01</_>
    <_>
      1.55039997e+01 2.36639996e+01 3.06000004e+01 3.71279984e+01</_>
    <_>
      2.03999996e+01 1.42799997e+01 1.46879997e+01 1.10159998e+01</_>
    <_>
      1.01183998e+02 4.12080002e+01 2.20319996e+01 1.01592003e+02</_>
    <_>
      1.06080002e+02 1.28927994e+02 1.23216003e+02 9.01679993e+01</_>
    <_>
      2.03999996e+01 2.73360004e+01 2.32560005e+01 3.87599983e+01</_>
    <_>
      4.89599991e+00 3.67199993e+00 8.56800003e+01 7.46640015e+01</_>
    <_>
      7.38479996e+01 1.03632004e+02 9.87360001e+01 9.95520020e+01</_>
    <_>
      9.18000031e+01 1.22400002e+02 1.18727997e+02 9.66959991e+01</_>
    <_>
      1.08528000e+02 1.15463997e+02 1.10160004e+02 1.23624001e+02</_>
    <_>
      2.03999996e+01 9.42480011e+01 9.75120010e+01 6.97679977e+01</_>
    <_>
      1.95839996e+01 2.28479996e+01 8.56799984e+00 4.73279991e+01</_>
    <_>
      3.34560013e+01 9.87360001e+01 1.29744003e+02 1.38311996e+02</_>
    <_>
      2.44799995e+01 2.24400005e+01 3.10079994e+01 1.83600006e+01</_>
    <_>
      2.44799995e+01 2.81520004e+01 1.30559998e+01 5.34480019e+01</_>
    <_>
      7.50719986e+01 7.34399986e+00 8.56799984e+00 9.18000031e+01</_>
    <_>
      8.36399994e+01 2.61119995e+01 9.75120010e+01 9.46559982e+01</_>
    <_>
      9.05759964e+01 1.30559998e+02 1.29744003e+02 1.39128006e+02</_>
    <_>
      7.01760025e+01 9.87360001e+01 9.66959991e+01 1.91760006e+01</_>
    <_>
      4.28400002e+01 1.06487999e+02 1.18727997e+02 1.39128006e+02</_>
    <_>
      0. 1.99920006e+01 0. 6.03839989e+01</_>
    <_>
      3.06000004e+01 2.20319996e+01 1.18319998e+01 5.71199989e+00</_>
    <_>
      1.17503998e+02 7.50719986e+01 6.16080017e+01 7.54800034e+01</_>
    <_>
      3.79440002e+01 4.20239983e+01 4.32480011e+01 6.36479988e+01</_>
    <_>
      1.87679996e+01 8.77200012e+01 9.66959991e+01 7.67040024e+01</_>
    <_>
      2.52959995e+01 9.01679993e+01 9.42480011e+01 1.33007996e+02</_>
    <_>
      6.85439987e+01 8.97600021e+01 9.26159973e+01 9.79199982e+00</_>
    <_>
      1.05264000e+02 1.24848000e+02 1.30559998e+02 1.39128006e+02</_>
    <_>
      1.07711998e+02 7.14000015e+01 1.04856003e+02 8.40479965e+01</_>
    <_>
      1.13424004e+02 1.30559998e+02 1.06896004e+02 5.58959999e+01</_>
    <_>
      4.03919983e+01 1.50959997e+01 2.69279995e+01 1.01999998e+01</_>
    <_>
      1.18727997e+02 1.30559998e+02 1.14239998e+02 5.91599998e+01</_>
    <_>
      1.16279999e+02 1.30559998e+02 1.18727997e+02 6.48720016e+01</_>
    <_>
      2.03999996e+01 1.83600006e+01 2.69279995e+01 3.71279984e+01</_>
    <_>
      2.85599995e+01 1.55039997e+01 2.48880005e+01 1.71359997e+01</_>
    <_>
      1.06079998e+01 9.38399963e+01 1.01592003e+02 8.24160004e+01</_>
    <_>
      4.20239983e+01 5.71199989e+00 8.97599983e+00 0.</_>
    <_>
      8.20080032e+01 1.30151993e+02 1.26480003e+02 1.05264000e+02</_>
    <_>
      5.95680008e+01 6.32400017e+01 1.17503998e+02 6.97679977e+01</_>
    <_>
      2.57040005e+01 9.83280029e+01 8.89440002e+01 6.73199997e+01</_>
    <_>
      0. 6.52799988e+00 1.87679996e+01 8.97600021e+01</_>
    <_>
      3.01919994e+01 0. 8.15999985e+00 0.</_>
    <_>
      3.42719994e+01 2.85599995e+01 2.97840004e+01 1.21584000e+02</_>
    <_>
      0. 0. 6.44639969e+01 1.01183998e+02</_>
    <_>
      8.44560013e+01 1.13424004e+02 1.21584000e+02 1.04040001e+02</_>
    <_>
      8.40479965e+01 7.01760025e+01 6.89520035e+01 1.20767998e+02</_>
    <_>
      1.05671997e+02 1.29335999e+02 1.19952003e+02 1.17096001e+02</_>
    <_>
      2.44799995e+00 9.58799973e+01 5.95680008e+01 7.99680023e+01</_>
    <_>
      0. 7.01760025e+01 0. 9.38399963e+01</_>
    <_>
      5.75279999e+01 1.06080002e+02 9.46559982e+01 2.24400005e+01</_>
    <_>
      1.59119997e+01 4.89599991e+01 3.67200012e+01 4.56959991e+01</_>
    <_>
      2.03999996e+01 4.32480011e+01 4.07999992e+01 3.79440002e+01</_>
    <_>
      1.10160004e+02 1.17096001e+02 1.21991997e+02 1.30559998e+02</_>
    <_>
      5.58959999e+01 2.44799995e+00 1.22400002e+02 0.</_>
    <_>
      9.05759964e+01 4.69199982e+01 7.87440033e+01 1.00367996e+02</_>
    <_>
      4.03919983e+01 3.79440002e+01 2.20319996e+01 1.34639997e+01</_>
    <_>
      9.46559982e+01 1.26071999e+02 1.05671997e+02 8.64960022e+01</_>
    <_>
      6.93599987e+00 5.79360008e+01 5.05919991e+01 6.97679977e+01</_>
    <_>
      9.01679993e+01 9.62880020e+01 1.12199997e+02 1.19952003e+02</_>
    <_>
      1.75440006e+01 1.03632004e+02 8.89440002e+01 7.50719986e+01</_>
    <_>
      9.79199982e+00 1.05671997e+02 9.62880020e+01 7.87440033e+01</_>
    <_>
      7.83359985e+01 9.42480011e+01 1.24440002e+02 1.33416000e+02</_>
    <_>
      8.56799984e+00 0. 7.58880005e+01 7.30319977e+01</_>
    <_>
      1.05671997e+02 1.08120003e+02 1.11384003e+02 1.23624001e+02</_>
    <_>
      1.12608002e+02 4.16160011e+01 8.77200012e+01 3.75359993e+01</_>
    <_>
      1.22400002e+02 9.13919983e+01 1.30559998e+02 9.01679993e+01</_>
    <_>
      1.02816002e+02 1.11384003e+02 1.02816002e+02 9.79199982e+01</_>
    <_>
      7.46640015e+01 102. 1.03223999e+02 1.04040001e+02</_>
    <_>
      6.77279968e+01 8.73119965e+01 102. 1.30559998e+01</_>
    <_>
      5.50800018e+01 2.08080006e+01 7.75199986e+00 3.38639984e+01</_>
    <_>
      1.71359997e+01 8.07839966e+01 0. 0.</_>
    <_>
      2.57040005e+01 9.13919983e+01 9.18000031e+01 6.69120026e+01</_>
    <_>
      0. 5.71199989e+00 6.36479988e+01 1.09344002e+02</_>
    <_>
      8.93519974e+01 7.87440033e+01 9.22080002e+01 5.30400009e+01</_>
    <_>
      1.63199997e+01 9.46559982e+01 3.75359993e+01 1.31376007e+02</_>
    <_>
      2.61119995e+01 2.85599995e+00 1.10159998e+01 4.52879982e+01</_>
    <_>
      4.89599991e+01 2.32560005e+01 2.16240005e+01 1.18319998e+01</_>
    <_>
      5.58959999e+01 1.08528000e+02 1.05264000e+02 1.33416000e+02</_>
    <_>
      1.91760006e+01 2.93759995e+01 4.28400002e+01 5.83440018e+01</_>
    <_>
      3.67200012e+01 0. 1.26479998e+01 5.50800018e+01</_>
    <_>
      6.89520035e+01 1.08120003e+02 8.85360031e+01 2.89680004e+01</_>
    <_>
      2.69279995e+01 4.03919983e+01 5.34480019e+01 6.12000008e+01</_>
    <_>
      2.12159996e+01 1.09344002e+02 9.22080002e+01 1.21176003e+02</_>
    <_>
      2.08080006e+01 6.12000008e+01 4.89599991e+00 8.77200012e+01</_>
    <_>
      2.81520004e+01 2.97840004e+01 2.48880005e+01 2.28479996e+01</_>
    <_>
      5.99760017e+01 7.75199966e+01 2.24400005e+01 5.71199989e+01</_>
    <_>
      1.99920006e+01 1.19543999e+02 3.54959984e+01 1.59119997e+01</_>
    <_>
      6.07919998e+01 1.09344002e+02 8.97600021e+01 1.07304001e+02</_>
    <_>
      8.52720032e+01 4.85519981e+01 9.34319992e+01 9.05759964e+01</_>
    <_>
      7.54800034e+01 2.52959995e+01 2.81520004e+01 3.30480003e+01</_>
    <_>
      9.79199982e+01 1.28927994e+02 1.27704002e+02 1.15463997e+02</_>
    <_>
      3.42719994e+01 4.12080002e+01 5.22239990e+01 5.75279999e+01</_>
    <_>
      1.21584000e+02 7.34400024e+01 5.34480019e+01 9.01679993e+01</_>
    <_>
      1.55039997e+01 1.87679996e+01 2.12159996e+01 3.91679993e+01</_>
    <_>
      1.75440006e+01 2.24400005e+01 3.10079994e+01 4.77360001e+01</_>
    <_>
      5.26320000e+01 0. 5.71199989e+00 0.</_>
    <_>
      9.54720001e+01 8.15999985e-01 7.75199986e+00 1.22399998e+00</_>
    <_>
      6.44639969e+01 4.89599991e+01 6.73199997e+01 1.00367996e+02</_>
    <_>
      7.50719986e+01 0. 3.83520012e+01 1.46879997e+01</_>
    <_>
      6.60960007e+01 6.81360016e+01 8.32320023e+01 1.06079998e+01</_>
    <_>
      1.08120003e+02 9.66959991e+01 1.12199997e+02 9.75120010e+01</_>
    <_>
      2.61119995e+01 9.83280029e+01 9.05759964e+01 1.26480003e+02</_>
    <_>
      8.15999985e-01 5.30399990e+00 5.42639999e+01 1.04856003e+02</_>
    <_>
      3.87599983e+01 3.18239994e+01 4.12080002e+01 1.09344002e+02</_>
    <_>
      7.34400024e+01 6.77279968e+01 9.46559982e+01 8.89440002e+01</_>
    <_>
      3.71279984e+01 9.50640030e+01 102. 7.01760025e+01</_>
    <_>
      1.07304001e+02 1.22400002e+02 1.23624001e+02 1.24440002e+02</_>
    <_>
      8.97599983e+00 9.66959991e+01 8.81279984e+01 1.01592003e+02</_>
    <_>
      1.22400002e+02 1.21584000e+02 1.28112000e+02 6.28320007e+01</_>
    <_>
      6.52799988e+00 8.81279984e+01 8.15999985e+01 1.10568001e+02</_>
    <_>
      1.00367996e+02 1.27704002e+02 1.25255997e+02 1.07304001e+02</_>
    <_>
      8.56800003e+01 1.20360001e+02 1.23216003e+02 1.02816002e+02</_>
    <_>
      9.30240021e+01 1.14648003e+02 1.30151993e+02 1.37087997e+02</_>
    <_>
      9.79199982e+01 1.04447998e+02 1.00776001e+02 7.58880005e+01</_>
    <_>
      1.63199997e+01 2.73360004e+01 2.40720005e+01 3.18239994e+01</_>
    <_>
      9.38399963e+01 7.62959976e+01 4.89599991e+00 0.</_>
    <_>
      2.69279995e+01 9.22080002e+01 7.58880005e+01 7.62959976e+01</_>
    <_>
      1.04040001e+02 1.10975998e+02 1.23216003e+02 1.30559998e+02</_>
    <_>
      2.48880005e+01 6.81360016e+01 5.26320000e+01 6.65039978e+01</_>
    <_>
      3.06000004e+01 2.57040005e+01 1.63199997e+00 4.07999992e-01</_>
    <_>
      8.69039993e+01 9.87360001e+01 1.28927994e+02 1.35455994e+02</_>
    <_>
      1.42799997e+01 3.30480003e+01 6.89520035e+01 1.39128006e+02</_>
    <_>
      1.22399998e+00 6.93599987e+00 3.79440002e+01 4.12080002e+01</_>
    <_>
      8.56799984e+00 1.10159998e+01 3.95760002e+01 4.56959991e+01</_>
    <_>
      3.87599983e+01 2.69279995e+01 3.18239994e+01 1.11792000e+02</_>
    <_>
      1.04447998e+02 1.26480003e+02 1.22807999e+02 102.</_>
    <_>
      1.02816002e+02 1.29744003e+02 1.30559998e+02 9.87360001e+01</_>
    <_>
      1.06080002e+02 5.71199989e+01 1.63199997e+01 8.15999985e+00</_>
    <_>
      3.38639984e+01 3.91679993e+01 2.61119995e+01 3.18239994e+01</_>
    <_>
      8.56799984e+00 1.06896004e+02 7.62959976e+01 9.09840012e+01</_>
    <_>
      2.36639996e+01 1.79519997e+01 3.26399994e+00 4.32480011e+01</_>
    <_>
      8.73119965e+01 7.54800034e+01 0. 0.</_>
    <_>
      6.73199997e+01 4.28400002e+01 6.20159988e+01 1.06487999e+02</_>
    <_>
      7.34399986e+00 1.06079998e+01 4.16160011e+01 5.46720009e+01</_>
    <_>
      1.15463997e+02 1.24440002e+02 1.30559998e+02 1.36679993e+02</_>
    <_>
      3.67199993e+00 0. 0. 8.15999985e+00</_>
    <_>
      6.77279968e+01 8.81279984e+01 9.30240021e+01 2.08080006e+01</_>
    <_>
      0. 0. 4.48799992e+00 9.09840012e+01</_>
    <_>
      8.07839966e+01 2.73360004e+01 1.87679996e+01 3.18239994e+01</_>
    <_>
      8.40479965e+01 8.11920013e+01 1.00776001e+02 1.18320000e+02</_>
    <_>
      1.10568001e+02 5.05919991e+01 7.83359985e+01 6.24239998e+01</_>
    <_>
      8.48639984e+01 1.03632004e+02 9.79199982e+01 1.28520004e+02</_>
    <_>
      1.15056000e+02 1.30151993e+02 1.23624001e+02 1.00367996e+02</_>
    <_>
      1.06079998e+01 8.28239975e+01 9.38399963e+01 8.32320023e+01</_>
    <_>
      5.42639999e+01 9.87360001e+01 1.26480003e+02 1.39128006e+02</_>
    <_>
      8.81279984e+01 5.14080009e+01 7.01760025e+01 9.01679993e+01</_>
    <_>
      8.56800003e+01 1.04856003e+02 1.30559998e+02 1.35455994e+02</_>
    <_>
      2.40720005e+01 8.56800003e+01 1.17503998e+02 1.14648003e+02</_>
    <_>
      7.46640015e+01 6.93600006e+01 3.79440002e+01 8.93519974e+01</_>
    <_>
      6.11999989e+00 1.59119997e+01 2.69279995e+01 3.71279984e+01</_>
    <_>
      1.22400002e+02 1.30559998e+02 1.19543999e+02 9.38399963e+01</_>
    <_>
      8.15999985e-01 2.40720005e+01 7.34399986e+00 1.08120003e+02</_>
    <_>
      1.63199997e+00 1.02407997e+02 8.15999985e+01 8.73119965e+01</_>
    <_>
      3.83520012e+01 3.42719994e+01 2.73360004e+01 4.36559982e+01</_>
    <_>
      2.57040005e+01 6.03839989e+01 1.67280006e+01 2.69279995e+01</_>
    <_>
      6.69120026e+01 3.87599983e+01 1.15872002e+02 6.97679977e+01</_>
    <_>
      7.67040024e+01 1.24440002e+02 1.28112000e+02 1.08528000e+02</_>
    <_>
      1.19543999e+02 1.01183998e+02 1.03223999e+02 9.22080002e+01</_>
    <_>
      5.91599998e+01 9.99599991e+01 3.95760002e+01 4.56959991e+01</_>
    <_>
      7.14000015e+01 2.77439995e+01 3.06000004e+01 2.73360004e+01</_>
    <_>
      1.26479998e+01 4.48799992e+00 2.85599995e+01 3.95760002e+01</_>
    <_>
      9.75120010e+01 1.08120003e+02 1.21584000e+02 1.29335999e+02</_>
    <_>
      5.91599998e+01 9.99599991e+01 1.10568001e+02 1.32600006e+02</_>
    <_>
      2.03999996e+01 5.71199989e+01 6.32400017e+01 3.42719994e+01</_>
    <_>
      1.13424004e+02 1.28520004e+02 1.30559998e+02 1.07711998e+02</_>
    <_>
      3.46800003e+01 8.85360031e+01 9.99599991e+01 7.46640015e+01</_>
    <_>
      1.21584000e+02 1.30559998e+02 1.14648003e+02 7.99680023e+01</_>
    <_>
      1.16279999e+02 3.91679993e+01 9.91439972e+01 6.07919998e+01</_>
    <_>
      7.18079987e+01 4.56959991e+01 4.73279991e+01 1.13424004e+02</_>
    <_>
      6.16080017e+01 5.71199989e+00 4.12080002e+01 2.03999996e+00</_>
    <_>
      1.01592003e+02 1.30559998e+02 1.30559998e+02 1.06896004e+02</_>
    <_>
      2.93759995e+01 4.73279991e+01 3.95760002e+01 6.16080017e+01</_>
    <_>
      1.21991997e+02 9.62880020e+01 1.30559998e+02 6.89520035e+01</_>
    <_>
      2.61119995e+01 1.04856003e+02 1.04856003e+02 7.46640015e+01</_>
    <_>
      1.46879997e+01 5.67120018e+01 1.95839996e+01 6.36479988e+01</_>
    <_>
      6.52799988e+00 4.07999992e+01 3.22319984e+01 2.61119995e+01</_>
    <_>
      0. 4.07999992e-01 3.83520012e+01 1.13015999e+02</_>
    <_>
      1.03632004e+02 1.29335999e+02 1.15056000e+02 1.04447998e+02</_>
    <_>
      8.44560013e+01 1.17503998e+02 1.24848000e+02 1.15056000e+02</_>
    <_>
      8.24160004e+01 1.23624001e+02 1.24848000e+02 1.11384003e+02</_>
    <_>
      1.83600006e+01 4.36559982e+01 6.73199997e+01 6.52799988e+01</_>
    <_>
      5.71199989e+00 0. 0. 1.63199997e+01</_>
    <_>
      5.54879990e+01 1.46879997e+01 1.71359997e+01 3.75359993e+01</_>
    <_>
      1.79519997e+01 2.40720005e+01 1.71359997e+01 3.42719994e+01</_>
    <_>
      2.44799995e+01 2.16240005e+01 1.26479998e+01 4.20239983e+01</_>
    <_>
      2.20319996e+01 9.71039963e+01 9.99599991e+01 8.07839966e+01</_>
    <_>
      3.38639984e+01 8.97600021e+01 9.50640030e+01 102.</_>
    <_>
      4.93680000e+01 8.11920013e+01 6.20159988e+01 1.06896004e+02</_>
    <_>
      9.18000031e+01 8.40479965e+01 9.13919983e+01 1.14239998e+02</_>
    <_>
      1.05671997e+02 1.28520004e+02 1.30151993e+02 8.48639984e+01</_>
    <_>
      4.48800011e+01 7.54800034e+01 3.71279984e+01 6.20159988e+01</_>
    <_>
      2.03999996e+01 2.69279995e+01 2.57040005e+01 2.48880005e+01</_>
    <_>
      1.22399998e+00 0. 2.81520004e+01 6.36479988e+01</_>
    <_>
      1.11384003e+02 1.07711998e+02 1.01183998e+02 1.33416000e+02</_>
    <_>
      3.63120003e+01 9.95520020e+01 6.73199997e+01 7.38479996e+01</_>
    <_>
      1.05671997e+02 1.27704002e+02 1.05671997e+02 8.44560013e+01</_>
    <_>
      3.38639984e+01 0. 2.65200005e+01 0.</_>
    <_>
      7.42559967e+01 9.09840012e+01 9.75120010e+01 1.00367996e+02</_>
    <_>
      8.77200012e+01 1.21584000e+02 9.91439972e+01 1.30559998e+02</_>
    <_>
      3.59039993e+01 5.75279999e+01 5.99760017e+01 2.77439995e+01</_>
    <_>
      2.85599995e+01 2.20319996e+01 2.28479996e+01 1.30559998e+01</_>
    <_>
      6.81360016e+01 1.15056000e+02 1.28927994e+02 1.32192001e+02</_>
    <_>
      0. 1.18319998e+01 1.42799997e+01 9.83280029e+01</_>
    <_>
      5.58959999e+01 5.18160019e+01 2.44799995e+01 1.31783997e+02</_>
    <_>
      2.32560005e+01 3.95760002e+01 1.26888000e+02 1.07711998e+02</_>
    <_>
      1.09344002e+02 7.38479996e+01 1.05264000e+02 5.42639999e+01</_>
    <_>
      2.44799995e+01 5.91599998e+01 5.95680008e+01 6.48720016e+01</_>
    <_>
      7.91520004e+01 1.04856003e+02 1.06487999e+02 1.19543999e+02</_>
    <_>
      8.36399994e+01 2.61119995e+01 3.59039993e+01 1.14648003e+02</_>
    <_>
      8.56800003e+01 4.77360001e+01 8.56799984e+00 6.48720016e+01</_>
    <_>
      2.52959995e+01 3.26399994e+01 2.36639996e+01 1.50959997e+01</_>
    <_>
      1.10160004e+02 1.30559998e+02 1.27704002e+02 1.18320000e+02</_>
    <_>
      2.12159996e+01 9.42480011e+01 7.34399986e+00 8.03759995e+01</_>
    <_>
      9.91439972e+01 1.16688004e+02 1.13015999e+02 1.17096001e+02</_>
    <_>
      6.73199997e+01 8.40479965e+01 9.83280029e+01 8.56799984e+00</_>
    <_>
      2.52959995e+01 4.69199982e+01 2.77439995e+01 8.69039993e+01</_>
    <_>
      6.40559998e+01 1.06487999e+02 1.30151993e+02 1.31783997e+02</_>
    <_>
      1.07304001e+02 4.07999992e+01 1.02816002e+02 7.26240005e+01</_>
    <_>
      7.91520004e+01 4.93680000e+01 5.14080009e+01 1.09344002e+02</_>
    <_>
      6.44639969e+01 1.26071999e+02 1.30559998e+02 1.16688004e+02</_>
    <_>
      1.01183998e+02 2.57040005e+01 1.10975998e+02 7.09919968e+01</_>
    <_>
      6.73199997e+01 7.26240005e+01 4.81440010e+01 1.71359997e+01</_>
    <_>
      1.46879997e+01 3.26399994e+01 3.06000004e+01 7.67040024e+01</_>
    <_>
      51. 6.65039978e+01 1.46879997e+01 9.13919983e+01</_>
    <_>
      9.62880020e+01 1.27704002e+02 1.26888000e+02 1.01183998e+02</_>
    <_>
      1.75440006e+01 3.26399994e+01 3.42719994e+01 3.50880013e+01</_>
    <_>
      2.81520004e+01 9.34319992e+01 9.91439972e+01 7.54800034e+01</_>
    <_>
      1.22400002e+02 1.30559998e+02 1.27704002e+02 1.19952003e+02</_>
    <_>
      7.14000015e+01 9.34319992e+01 9.91439972e+01 9.79199982e+00</_>
    <_>
      1.13832001e+02 8.93519974e+01 1.07304001e+02 1.15056000e+02</_>
    <_>
      2.52959995e+01 8.40479965e+01 8.81279984e+01 8.44560013e+01</_>
    <_>
      1.34639997e+01 9.79199982e+01 1.08120003e+02 7.30319977e+01</_>
    <_>
      8.64960022e+01 1.17096001e+02 1.30151993e+02 1.25255997e+02</_>
    <_>
      6.93600006e+01 8.24160004e+01 4.65120010e+01 1.15056000e+02</_>
    <_>
      0. 0. 6.24239998e+01 1.11792000e+02</_>
    <_>
      7.75199966e+01 2.16240005e+01 3.50880013e+01 3.83520012e+01</_>
    <_>
      7.62959976e+01 2.32560005e+01 1.46879997e+01 5.71199989e+01</_>
    <_>
      1.46879997e+01 3.75359993e+01 2.40720005e+01 8.15999985e+01</_>
    <_>
      1.15056000e+02 1.06487999e+02 1.19543999e+02 1.15463997e+02</_>
    <_>
      4.73279991e+01 3.75359993e+01 0. 0.</_>
    <_>
      0. 2.57040005e+01 5.30399990e+00 7.54800034e+01</_>
    <_>
      4.89599991e+00 8.15999985e-01 9.54720001e+01 9.46559982e+01</_>
    <_>
      5.71199989e+00 2.03999996e+01 1.50959997e+01 5.34480019e+01</_>
    <_>
      4.20239983e+01 5.14080009e+01 4.24319992e+01 2.48880005e+01</_>
    <_>
      4.77360001e+01 0. 1.38719997e+01 0.</_>
    <_>
      2.69279995e+01 4.03919983e+01 3.59039993e+01 5.26320000e+01</_>
    <_>
      3.63120003e+01 5.30400009e+01 6.16080017e+01 6.24239998e+01</_>
    <_>
      9.79199982e+00 8.56799984e+00 7.34399986e+00 6.52799988e+00</_>
    <_>
      2.32560005e+01 6.07919998e+01 2.97840004e+01 3.14160004e+01</_>
    <_>
      8.56799984e+00 9.42480011e+01 1.00776001e+02 7.42559967e+01</_>
    <_>
      3.06000004e+01 1.63199997e+01 3.59039993e+01 1.10159998e+01</_>
    <_>
      3.50880013e+01 9.46559982e+01 7.38479996e+01 7.50719986e+01</_>
    <_>
      4.89599991e+00 9.42480011e+01 1.00367996e+02 1.04447998e+02</_>
    <_>
      8.56799984e+00 3.79440002e+01 1.38719997e+01 9.66959991e+01</_>
    <_>
      3.50880013e+01 3.30480003e+01 2.93759995e+01 3.10079994e+01</_>
    <_>
      1.46879997e+01 9.62880020e+01 7.38479996e+01 7.09919968e+01</_>
    <_>
      2.93759995e+01 8.28239975e+01 7.75199966e+01 4.28400002e+01</_>
    <_>
      3.34560013e+01 8.44560013e+01 4.07999992e+01 1.17503998e+02</_>
    <_>
      3.87599983e+01 7.91520004e+01 0. 1.04040001e+02</_>
    <_>
      3.10079994e+01 6.93599987e+00 2.03999996e+01 5.71199989e+00</_>
    <_>
      4.48799992e+00 0. 4.44720001e+01 3.26399994e+01</_>
    <_>
      1.02407997e+02 1.24848000e+02 1.27704002e+02 9.62880020e+01</_>
    <_>
      1.99920006e+01 3.22319984e+01 5.95680008e+01 6.32400017e+01</_>
    <_>
      3.01919994e+01 2.03999996e+01 3.18239994e+01 1.63199997e+01</_>
    <_>
      1.18727997e+02 1.03223999e+02 102. 1.37904007e+02</_>
    <_>
      1.16279999e+02 1.29744003e+02 1.24848000e+02 1.19543999e+02</_>
    <_>
      2.28479996e+01 6.69120026e+01 6.03839989e+01 0.</_>
    <_>
      1.20767998e+02 1.30559998e+02 9.46559982e+01 6.89520035e+01</_>
    <_>
      1.15056000e+02 4.48800011e+01 8.40479965e+01 5.87519989e+01</_>
    <_>
      2.93759995e+01 3.71279984e+01 4.24319992e+01 7.54800034e+01</_>
    <_>
      1.22400002e+02 1.28112000e+02 8.07839966e+01 3.79440002e+01</_>
    <_>
      1.01999998e+01 8.89440002e+01 9.66959991e+01 7.87440033e+01</_>
    <_>
      5.99760017e+01 0. 2.81520004e+01 0.</_>
    <_>
      2.03999996e+00 0. 3.99840012e+01 2.16240005e+01</_>
    <_>
      6.97679977e+01 9.79199982e+00 2.52959995e+01 5.18160019e+01</_>
    <_>
      1.63199997e+01 4.03919983e+01 1.71359997e+01 3.99840012e+01</_>
    <_>
      1.95839996e+01 2.52959995e+01 2.93759995e+01 5.42639999e+01</_>
    <_>
      1.18319998e+01 1.38719997e+01 3.26399994e+00 3.67199993e+00</_>
    <_>
      3.42719994e+01 2.16240005e+01 9.38399982e+00 7.58880005e+01</_>
    <_>
      4.52879982e+01 3.95760002e+01 1.46879997e+01 1.99920006e+01</_>
    <_>
      1.26479998e+01 1.59119997e+01 3.10079994e+01 4.81440010e+01</_>
    <_>
      9.87360001e+01 6.12000008e+01 7.79280014e+01 7.91520004e+01</_>
    <_>
      2.89680004e+01 1.50959997e+01 6.93599987e+00 3.26399994e+00</_>
    <_>
      9.71039963e+01 51. 7.54800034e+01 7.54800034e+01</_>
    <_>
      1.30559998e+01 1.87679996e+01 2.89680004e+01 2.97840004e+01</_>
    <_>
      1.05671997e+02 4.93680000e+01 3.26399994e+00 1.63199997e+00</_>
    <_>
      1.22400002e+02 7.30319977e+01 1.30559998e+02 7.42559967e+01</_>
    <_>
      1.01999998e+01 9.01679993e+01 7.99680023e+01 7.62959976e+01</_>
    <_>
      2.44799995e+01 4.12080002e+01 4.61040001e+01 6.03839989e+01</_>
    <_>
      5.95680008e+01 1.34639997e+01 4.20239983e+01 1.25255997e+02</_>
    <_>
      5.26320000e+01 1.12199997e+02 3.50880013e+01 1.39128006e+02</_>
    <_>
      3.71279984e+01 1.46879997e+01 3.38639984e+01 1.79519997e+01</_>
    <_>
      1.38719997e+01 2.24400005e+01 5.58959999e+01 1.22400002e+02</_>
    <_>
      1.22400002e+02 1.30559998e+02 1.03223999e+02 9.01679993e+01</_>
    <_>
      3.63120003e+01 0. 4.89599991e+00 0.</_>
    <_>
      8.56800003e+01 1.27704002e+02 1.05264000e+02 1.27704002e+02</_>
    <_>
      2.77439995e+01 4.03919983e+01 2.57040005e+01 4.56959991e+01</_>
    <_>
      9.87360001e+01 1.25664001e+02 1.15463997e+02 9.30240021e+01</_>
    <_>
      9.26159973e+01 1.02407997e+02 8.81279984e+01 7.01760025e+01</_>
    <_>
      51. 7.71119995e+01 1.13424004e+02 2.48880005e+01</_>
    <_>
      9.50640030e+01 4.32480011e+01 7.95599976e+01 7.99680023e+01</_>
    <_>
      4.36559982e+01 7.26240005e+01 6.69120026e+01 3.71279984e+01</_>
    <_>
      4.12080002e+01 0. 3.14160004e+01 0.</_>
    <_>
      4.73279991e+01 2.08080006e+01 3.06000004e+01 1.71359997e+01</_>
    <_>
      9.01679993e+01 1.15463997e+02 1.25664001e+02 1.15872002e+02</_>
    <_>
      8.81279984e+01 1.23624001e+02 1.30151993e+02 1.26888000e+02</_>
    <_>
      2.81520004e+01 8.81279984e+01 7.18079987e+01 7.30319977e+01</_>
    <_>
      2.77439995e+01 3.14160004e+01 3.06000004e+01 2.69279995e+01</_>
    <_>
      7.34399986e+00 1.71359997e+01 3.14160004e+01 6.12000008e+01</_>
    <_>
      5.99760017e+01 2.57040005e+01 6.52799988e+00 4.20239983e+01</_>
    <_>
      1.75440006e+01 9.75120010e+01 1.15056000e+02 2.97840004e+01</_>
    <_>
      7.09919968e+01 1.06080002e+02 8.81279984e+01 1.08120003e+02</_>
    <_>
      2.57040005e+01 5.01839981e+01 3.34560013e+01 6.93600006e+01</_>
    <_>
      4.56959991e+01 7.18079987e+01 6.24239998e+01 4.07999992e+01</_>
    <_>
      9.87360001e+01 4.61040001e+01 8.44560013e+01 6.89520035e+01</_>
    <_>
      1.46879997e+01 2.57040005e+01 1.46879997e+01 1.08528000e+02</_>
    <_>
      7.87440033e+01 7.05839996e+01 7.42559967e+01 0.</_>
    <_>
      1.71359997e+01 3.14160004e+01 3.54959984e+01 5.83440018e+01</_>
    <_>
      7.38479996e+01 2.73360004e+01 51. 4.40639992e+01</_>
    <_>
      2.08080006e+01 1.00367996e+02 8.28239975e+01 7.83359985e+01</_>
    <_>
      1.01999998e+01 7.91520004e+01 4.61040001e+01 7.01760025e+01</_>
    <_>
      1.22400002e+02 1.10160004e+02 1.30559998e+02 6.44639969e+01</_>
    <_>
      7.26240005e+01 9.34319992e+01 9.71039963e+01 2.40720005e+01</_>
    <_>
      1.59119997e+01 6.40559998e+01 5.91599998e+01 6.60960007e+01</_>
    <_>
      2.28479996e+01 4.85519981e+01 5.95680008e+01 3.83520012e+01</_>
    <_>
      1.75440006e+01 9.38399963e+01 6.36479988e+01 7.38479996e+01</_>
    <_>
      6.40559998e+01 2.20319996e+01 7.18079987e+01 1.15056000e+02</_>
    <_>
      2.20319996e+01 2.40720005e+01 3.50880013e+01 4.77360001e+01</_>
    <_>
      1.22399998e+01 1.83600006e+01 6.11999989e+00 0.</_>
    <_>
      4.97760010e+01 6.69120026e+01 9.87360001e+01 1.24440002e+02</_>
    <_>
      7.67040024e+01 1.04447998e+02 1.03632004e+02 1.30151993e+02</_>
    <_>
      2.73360004e+01 9.22080002e+01 6.52799988e+01 7.71119995e+01</_>
    <_>
      4.97760010e+01 1.38719997e+01 3.99840012e+01 4.07999992e+00</_>
    <_>
      2.77439995e+01 9.87360001e+01 1.08120003e+02 7.58880005e+01</_>
    <_>
      2.44799995e+01 5.99760017e+01 2.57040005e+01 2.69279995e+01</_>
    <_>
      3.95760002e+01 5.63040009e+01 7.09919968e+01 1.26071999e+02</_>
    <_>
      1.38719997e+01 2.20319996e+01 1.87679996e+01 2.77439995e+01</_>
    <_>
      7.79280014e+01 1.14648003e+02 1.30151993e+02 1.26071999e+02</_>
    <_>
      8.56799984e+00 5.75279999e+01 8.48639984e+01 5.67120018e+01</_>
    <_>
      6.11999989e+00 8.07839966e+01 7.34400024e+01 7.95599976e+01</_>
    <_>
      1.46879997e+01 4.81440010e+01 1.83600006e+01 3.42719994e+01</_>
    <_>
      1.03223999e+02 1.18320000e+02 1.19136002e+02 1.16688004e+02</_>
    <_>
      7.34400024e+01 1.63199997e+01 3.59039993e+01 3.71279984e+01</_>
    <_>
      1.87679996e+01 3.87599983e+01 2.52959995e+01 6.97679977e+01</_>
    <_>
      2.16240005e+01 0. 1.01999998e+01 0.</_>
    <_>
      1.67280006e+01 4.61040001e+01 1.91760006e+01 6.40559998e+01</_>
    <_>
      5.75279999e+01 2.81520004e+01 2.65200005e+01 3.26399994e+01</_>
    <_>
      3.26399994e+01 4.65120010e+01 0. 0.</_>
    <_>
      3.75359993e+01 3.79440002e+01 2.65200005e+01 1.31376007e+02</_>
    <_>
      5.22239990e+01 3.50880013e+01 4.89599991e+01 1.23624001e+02</_>
    <_>
      1.22400002e+02 8.93519974e+01 1.30559998e+02 5.54879990e+01</_>
    <_>
      1.87679996e+01 1.38719997e+01 1.67280006e+01 7.09919968e+01</_>
    <_>
      9.01679993e+01 1.12199997e+02 9.62880020e+01 1.19952003e+02</_>
    <_>
      2.28479996e+01 4.24319992e+01 1.71359997e+01 4.07999992e+01</_>
    <_>
      6.16080017e+01 8.15999985e+01 5.05919991e+01 1.13832001e+02</_>
    <_>
      7.50719986e+01 1.29335999e+02 1.28520004e+02 1.29335999e+02</_>
    <_>
      6.52799988e+00 8.32320023e+01 9.79199982e+01 7.62959976e+01</_>
    <_>
      1.34639997e+01 2.57040005e+01 0. 8.56799984e+00</_>
    <_>
      1.46879997e+01 2.77439995e+01 3.06000004e+01 2.77439995e+01</_>
    <_>
      3.95760002e+01 6.65039978e+01 7.95599976e+01 2.20319996e+01</_>
    <_>
      1.15872002e+02 1.26480003e+02 1.99920006e+01 2.44799995e+00</_>
    <_>
      6.77279968e+01 1.71359997e+01 2.32560005e+01 3.22319984e+01</_>
    <_>
      5.14080009e+01 5.42639999e+01 2.48880005e+01 1.13424004e+02</_>
    <_>
      1.16688004e+02 1.21584000e+02 1.02407997e+02 1.00367996e+02</_>
    <_>
      8.56799984e+00 3.26399994e+00 0. 3.63120003e+01</_>
    <_>
      6.44639969e+01 1.46879997e+01 4.24319992e+01 3.59039993e+01</_>
    <_>
      5.38559990e+01 4.97760010e+01 3.42719994e+01 7.38479996e+01</_>
    <_>
      2.44799995e+01 2.36639996e+01 7.22160034e+01 3.95760002e+01</_>
    <_>
      1.17096001e+02 5.22239990e+01 51. 8.56800003e+01</_>
    <_>
      2.93759995e+01 3.67200012e+01 3.87599983e+01 6.48720016e+01</_>
    <_>
      0. 1.14239998e+01 0. 6.16080017e+01</_>
    <_>
      1.26479998e+01 3.71279984e+01 0. 0.</_>
    <_>
      7.34400024e+01 7.54800034e+01 9.22080002e+01 1.04856003e+02</_>
    <_>
      3.49860001e+01 1.08732002e+02 3.67199993e+00 8.87399960e+00</_>
    <_>
      2.97840004e+01 7.26240005e+01 8.52720032e+01 1.33416000e+02</_>
    <_>
      2.12159996e+01 1.42799997e+01 3.01919994e+01 5.71199989e+00</_>
    <_>
      1.21991997e+02 1.05264000e+02 1.28520004e+02 9.83280029e+01</_>
    <_>
      0. 4.61040001e+01 3.67199993e+00 1.21991997e+02</_>
    <_>
      2.12159996e+01 3.67200012e+01 5.22239990e+01 6.12000008e+01</_>
    <_>
      2.12159996e+01 1.34639997e+01 1.87679996e+01 5.99760017e+01</_>
    <_>
      1.14648003e+02 3.87599983e+01 8.48639984e+01 5.50800018e+01</_>
    <_>
      6.85439987e+01 7.34399986e+00 3.46800003e+01 2.12159996e+01</_>
    <_>
      2.16240005e+01 2.12159996e+01 2.16240005e+01 2.97840004e+01</_>
    <_>
      4.07999992e-01 1.06080002e+02 7.71119995e+01 9.13919983e+01</_>
    <_>
      1.22400002e+02 8.89440002e+01 1.30559998e+02 7.22160034e+01</_>
    <_>
      9.18000031e+01 1.30559998e+02 1.28927994e+02 1.18727997e+02</_>
    <_>
      9.83280029e+01 1.24848000e+02 1.17912003e+02 9.87360001e+01</_>
    <_>
      1.14239998e+01 8.85360031e+01 1.46879997e+01 6.24239998e+01</_>
    <_>
      1.22400002e+02 1.30559998e+02 8.52720032e+01 51.</_>
    <_>
      6.20159988e+01 9.13919983e+01 9.91439972e+01 9.91439972e+01</_>
    <_>
      7.01760025e+01 1.42799997e+01 1.83600006e+01 8.36399994e+01</_>
    <_>
      3.59039993e+01 2.85599995e+01 6.93599987e+00 2.97840004e+01</_>
    <_>
      1.17912003e+02 1.30559998e+02 1.22400002e+02 7.95599976e+01</_>
    <_>
      1.02816002e+02 1.05264000e+02 9.95520020e+01 9.05759964e+01</_>
    <_>
      8.15999985e+00 3.30480003e+01 1.30559998e+01 3.67200012e+01</_>
    <_>
      1.30559998e+01 4.36559982e+01 2.40720005e+01 4.48800011e+01</_>
    <_>
      1.83600006e+01 1.99920006e+01 8.89440002e+01 8.28239975e+01</_>
    <_>
      2.81520004e+01 5.83440018e+01 7.34400024e+01 6.16080017e+01</_>
    <_>
      6.12000008e+01 5.30400009e+01 5.91599998e+01 9.34319992e+01</_>
    <_>
      1.15872002e+02 1.30151993e+02 1.22807999e+02 1.38311996e+02</_>
    <_>
      2.97840004e+01 3.54959984e+01 2.16240005e+01 1.23624001e+02</_>
    <_>
      3.50880013e+01 7.26240005e+01 0. 1.07711998e+02</_>
    <_>
      1.14239998e+01 1.07711998e+02 1.00367996e+02 9.95520020e+01</_>
    <_>
      102. 1.22807999e+02 1.15056000e+02 1.03632004e+02</_>
    <_>
      9.79199982e+00 5.14080009e+01 0. 1.08528000e+02</_>
    <_>
      8.15999985e+01 2.03999996e+01 6.03839989e+01 4.77360001e+01</_>
    <_>
      5.67120018e+01 1.10160004e+02 1.16279999e+02 4.28400002e+01</_>
    <_>
      2.36639996e+01 3.59039993e+01 2.44799995e+00 4.03919983e+01</_>
    <_>
      8.48639984e+01 2.61119995e+01 1.79519997e+01 9.13919983e+01</_>
    <_>
      1.75440006e+01 9.38399963e+01 1.07711998e+02 7.01760025e+01</_>
    <_>
      3.91679993e+01 1.29335999e+02 7.46640015e+01 1.39128006e+02</_>
    <_>
      6.73199997e+01 9.34319992e+01 9.91439972e+01 1.79519997e+01</_>
    <_>
      4.40639992e+01 1.04040001e+02 8.20080032e+01 1.25664001e+02</_>
    <_>
      9.46559982e+01 3.71279984e+01 1.14239998e+01 9.95520020e+01</_>
    <_>
      2.24400005e+01 3.79440002e+01 2.69279995e+01 4.32480011e+01</_>
    <_>
      1.06079998e+01 8.60879974e+01 9.58799973e+01 7.18079987e+01</_>
    <_>
      4.93680000e+01 5.26320000e+01 6.40559998e+01 1.03223999e+02</_>
    <_>
      5.87519989e+01 9.26159973e+01 8.93519974e+01 1.55039997e+01</_>
    <_>
      0. 2.77439995e+01 2.44799995e+01 8.69039993e+01</_>
    <_>
      9.79199982e+00 1.06079998e+01 2.32560005e+01 4.03919983e+01</_>
    <_>
      1.79519997e+01 9.75120010e+01 9.18000031e+01 7.42559967e+01</_>
    <_>
      1.34639997e+01 3.46800003e+01 3.50880013e+01 4.65120010e+01</_>
    <_>
      6.32400017e+01 1.87679996e+01 1.59119997e+01 9.05759964e+01</_>
    <_>
      7.75199966e+01 6.28320007e+01 4.77360001e+01 1.18320000e+02</_>
    <_>
      1.22400002e+02 9.22080002e+01 1.28927994e+02 4.48800011e+01</_>
    <_>
      9.75120010e+01 1.04040001e+02 1.23624001e+02 1.35455994e+02</_>
    <_>
      8.36399994e+01 1.06080002e+02 1.00776001e+02 1.10160004e+02</_>
    <_>
      3.95760002e+01 1.10159998e+01 3.26399994e+00 1.63199997e+00</_>
    <_>
      3.99840012e+01 3.34560013e+01 3.50880013e+01 2.48880005e+01</_>
    <_>
      1.63199997e+00 1.30559998e+01 9.05759964e+01 1.27295998e+02</_>
    <_>
      1.22400002e+02 1.30559998e+02 9.71039963e+01 8.64960022e+01</_>
    <_>
      2.81520004e+01 1.79519997e+01 5.30400009e+01 6.16080017e+01</_>
    <_>
      5.71199989e+01 1.06079998e+01 8.64960022e+01 5.63040009e+01</_>
    <_>
      7.38479996e+01 1.08528000e+02 1.07304001e+02 1.17503998e+02</_>
    <_>
      0. 0. 1.14239998e+01 6.40559998e+01</_>
    <_>
      1.30559998e+01 4.69199982e+01 4.32480011e+01 3.30480003e+01</_>
    <_>
      8.73119965e+01 5.46720009e+01 0. 0.</_>
    <_>
      7.99680023e+01 1.46879997e+01 3.46800003e+01 2.61119995e+01</_>
    <_>
      7.34400024e+01 1.08120003e+02 1.30559998e+02 1.36272003e+02</_>
    <_>
      1.71359997e+01 7.75199986e+00 1.06079998e+01 4.89599991e+00</_>
    <_>
      6.12000008e+01 2.77439995e+01 3.30480003e+01 3.91679993e+01</_>
    <_>
      4.52879982e+01 1.46879997e+01 7.75199986e+00 1.14239998e+01</_>
    <_>
      9.58799973e+01 5.26320000e+01 7.34399986e+00 8.15999985e-01</_>
    <_>
      9.75120010e+01 8.15999985e+01 8.85360031e+01 4.69199982e+01</_>
    <_>
      5.79360008e+01 1.30559998e+02 1.08935997e+02 1.12199997e+02</_>
    <_>
      1.01592003e+02 1.24440002e+02 1.11792000e+02 1.31376007e+02</_>
    <_>
      3.67199993e+00 2.93759995e+01 1.10159998e+01 5.46720009e+01</_>
    <_>
      1.03223999e+02 6.48720016e+01 2.12159996e+01 1.18319998e+01</_>
    <_>
      4.69199982e+01 4.69199982e+01 4.20239983e+01 4.03919983e+01</_>
    <_>
      1.18727997e+02 9.42480011e+01 8.93519974e+01 1.33007996e+02</_>
    <_>
      7.83359985e+01 1.42799997e+01 1.75440006e+01 9.46559982e+01</_>
    <_>
      2.93759995e+01 5.79360008e+01 3.30480003e+01 3.87599983e+01</_>
    <_>
      3.63120003e+01 2.89680004e+01 2.08080006e+01 1.18319998e+01</_>
    <_>
      7.75199966e+01 7.91520004e+01 9.09840012e+01 9.54720001e+01</_>
    <_>
      1.10975998e+02 1.26888000e+02 9.66959991e+01 8.28239975e+01</_>
    <_>
      8.64960022e+01 6.07919998e+01 0. 1.22399998e+00</_>
    <_>
      3.67199993e+00 0. 2.57040005e+01 0.</_>
    <_>
      2.03999996e+00 0. 1.63199997e+01 1.30559998e+01</_>
    <_>
      3.42719994e+01 4.77360001e+01 3.14160004e+01 4.65120010e+01</_>
    <_>
      1.95839996e+01 1.75440006e+01 2.24400005e+01 4.65120010e+01</_>
    <_>
      2.24400005e+01 4.32480011e+01 2.77439995e+01 9.54720001e+01</_>
    <_>
      0. 0. 0. 1.00367996e+02</_>
    <_>
      3.67199993e+00 0. 6.11999989e+00 0.</_>
    <_>
      1.99920006e+01 3.63120003e+01 2.44799995e+01 9.79199982e+00</_>
    <_>
      1.07711998e+02 1.29335999e+02 1.14239998e+02 7.67040024e+01</_>
    <_>
      3.14160004e+01 4.69199982e+01 2.77439995e+01 1.26480003e+02</_>
    <_>
      9.01679993e+01 1.04447998e+02 9.46559982e+01 1.12608002e+02</_>
    <_>
      1.08528000e+02 1.10975998e+02 1.08528000e+02 9.95520020e+01</_>
    <_>
      2.16240005e+01 3.01919994e+01 3.71279984e+01 4.36559982e+01</_>
    <_>
      2.77439995e+01 7.83359985e+01 2.03999996e+00 7.87440033e+01</_>
    <_>
      6.07919998e+01 1.14239998e+02 4.20239983e+01 7.34400024e+01</_>
    <_>
      1.07304001e+02 1.12608002e+02 1.06080002e+02 1.14648003e+02</_>
    <_>
      1.10160004e+02 1.10975998e+02 1.15872002e+02 1.28520004e+02</_>
    <_>
      0. 4.85519981e+01 0. 7.50719986e+01</_>
    <_>
      1.06896004e+02 5.34480019e+01 7.26240005e+01 6.89520035e+01</_>
    <_>
      9.71039963e+01 2.81520004e+01 4.24319992e+01 8.85360031e+01</_>
    <_>
      1.15872002e+02 4.40639992e+01 1.06079998e+01 8.15999985e-01</_>
    <_>
      3.67199993e+00 9.30240021e+01 5.30399990e+00 1.35455994e+02</_>
    <_>
      7.67040024e+01 5.58959999e+01 0. 0.</_>
    <_>
      3.26399994e+00 9.79199982e+00 2.65200005e+01 3.83520012e+01</_>
    <_>
      4.52879982e+01 6.89520035e+01 3.95760002e+01 3.26399994e+01</_>
    <_>
      1.14239998e+01 9.91439972e+01 7.79280014e+01 9.05759964e+01</_>
    <_>
      9.46559982e+01 1.30559998e+02 1.30151993e+02 1.27704002e+02</_>
    <_>
      1.11384003e+02 1.29744003e+02 9.71039963e+01 7.05839996e+01</_>
    <_>
      2.69279995e+01 2.36639996e+01 2.69279995e+01 5.42639999e+01</_>
    <_>
      2.08080006e+01 1.04040001e+02 7.79280014e+01 8.28239975e+01</_>
    <_>
      1.14648003e+02 1.28927994e+02 1.09751999e+02 1.39128006e+02</_>
    <_>
      1.19136002e+02 1.30559998e+02 8.64960022e+01 7.09919968e+01</_>
    <_>
      1.30559998e+01 5.30399990e+00 2.81520004e+01 1.14648003e+02</_>
    <_>
      1.22399998e+01 0. 3.26399994e+01 0.</_>
    <_>
      1.21176003e+02 1.10568001e+02 1.17912003e+02 1.21584000e+02</_>
    <_>
      9.83280029e+01 6.12000008e+01 1.95839996e+01 6.11999989e+00</_>
    <_>
      1.15872002e+02 8.40479965e+01 1.19952003e+02 7.30319977e+01</_>
    <_>
      1.22400002e+02 1.07711998e+02 1.12199997e+02 8.73119965e+01</_>
    <_>
      2.28479996e+01 3.99840012e+01 3.54959984e+01 6.56880035e+01</_>
    <_>
      9.66959991e+01 9.54720001e+01 5.30399990e+00 5.71199989e+00</_>
    <_>
      4.85519981e+01 5.46720009e+01 5.67120018e+01 1.55039997e+01</_>
    <_>
      1.01999998e+01 0. 4.07999992e+01 5.54879990e+01</_>
    <_>
      1.51980000e+01 4.56959991e+01 0. 2.16240005e+01</_>
    <_>
      3.34560013e+01 2.03999996e+01 0. 0.</_>
    <_>
      6.16080017e+01 9.79199982e+00 3.63120003e+01 4.65120010e+01</_>
    <_>
      7.75199986e+00 0. 1.83600006e+01 1.42799997e+01</_>
    <_>
      6.81360016e+01 5.26320000e+01 2.48880005e+01 1.07711998e+02</_>
    <_>
      0. 5.22239990e+01 0. 7.01760025e+01</_>
    <_>
      4.89599991e+00 9.87360001e+01 8.03759995e+01 9.83280029e+01</_>
    <_>
      1.15463997e+02 7.26240005e+01 5.34480019e+01 9.34319992e+01</_>
    <_>
      6.56880035e+01 7.50719986e+01 1.06896004e+02 1.14239998e+02</_>
    <_>
      6.20159988e+01 8.15999985e+00 2.73360004e+01 3.87599983e+01</_>
    <_>
      8.97599983e+00 8.60879974e+01 9.75120010e+01 4.07999992e+01</_>
    <_>
      3.18239994e+01 8.89440002e+01 7.75199966e+01 7.09919968e+01</_>
    <_>
      7.34399986e+00 9.62880020e+01 7.87440033e+01 7.99680023e+01</_>
    <_>
      2.44799995e+01 3.71279984e+01 1.71359997e+01 5.38559990e+01</_>
    <_>
      1.14648003e+02 1.21991997e+02 1.20767998e+02 1.23624001e+02</_>
    <_>
      7.34399986e+00 2.44799995e+01 2.28479996e+01 8.32320023e+01</_>
    <_>
      4.16160011e+01 2.08080006e+01 7.34399986e+00 2.44799995e+00</_>
    <_>
      9.46559982e+01 5.14080009e+01 0. 0.</_>
    <_>
      9.38399963e+01 7.71119995e+01 4.48799992e+00 8.56799984e+00</_>
    <_>
      0. 4.32480011e+01 0. 4.81440010e+01</_>
    <_>
      4.07999992e+00 5.95680008e+01 1.13015999e+02 8.89440002e+01</_>
    <_>
      7.99680023e+01 3.34560013e+01 2.77439995e+01 7.09919968e+01</_>
    <_>
      8.15999985e+00 3.42719994e+01 6.11999989e+00 6.97679977e+01</_>
    <_>
      1.22400002e+02 1.04040001e+02 1.30559998e+02 8.52720032e+01</_>
    <_>
      1.04040001e+02 7.34399986e+00 1.18319998e+01 0.</_>
    <_>
      4.07999992e+01 5.91599998e+01 1.26479998e+01 0.</_>
    <_>
      2.32560005e+01 6.85439987e+01 6.52799988e+01 102.</_>
    <_>
      2.44799995e+01 5.71199989e+01 6.32400017e+01 1.32192001e+02</_>
    <_>
      3.54959984e+01 2.03999996e+01 2.69279995e+01 1.67280006e+01</_>
    <_>
      1.14648003e+02 5.26320000e+01 8.11920013e+01 1.38720001e+02</_>
    <_>
      9.18000031e+01 1.04040001e+02 1.03632004e+02 1.09344002e+02</_>
    <_>
      6.03839989e+01 8.81279984e+01 1.03632004e+02 9.58799973e+01</_>
    <_>
      0. 0. 6.12000008e+01 8.64960022e+01</_>
    <_>
      5.54879990e+01 2.77439995e+01 3.14160004e+01 8.64960022e+01</_>
    <_>
      6.32400017e+01 8.85360031e+01 8.03759995e+01 9.38399963e+01</_>
    <_>
      7.34399986e+00 4.44720001e+01 7.83359985e+01 9.71039963e+01</_>
    <_>
      5.63040009e+01 9.46559982e+01 3.79440002e+01 6.20159988e+01</_>
    <_>
      2.65200005e+01 2.81520004e+01 3.10079994e+01 3.63120003e+01</_>
    <_>
      5.30399990e+00 1.46879997e+01 2.81520004e+01 5.54879990e+01</_>
    <_>
      7.99680023e+01 2.89680004e+01 3.63120003e+01 7.71119995e+01</_>
    <_>
      2.65200005e+01 2.77439995e+01 6.85439987e+01 2.69279995e+01</_>
    <_>
      5.63040009e+01 1.99920006e+01 1.10159998e+01 2.65200005e+01</_>
    <_>
      3.46800003e+01 3.01919994e+01 3.71279984e+01 2.52959995e+01</_>
    <_>
      5.14080009e+01 2.08080006e+01 2.12159996e+01 6.11999989e+00</_>
    <_>
      0. 4.28400002e+01 9.79199982e+00 1.02816002e+02</_>
    <_>
      7.62959976e+01 1.13832001e+02 1.29335999e+02 1.33007996e+02</_>
    <_>
      1.04856003e+02 1.23624001e+02 1.08120003e+02 9.54720001e+01</_>
    <_>
      9.54720001e+01 1.75440006e+01 1.15872002e+02 7.14000015e+01</_>
    <_>
      1.13424004e+02 3.42719994e+01 8.89440002e+01 6.28320007e+01</_>
    <_>
      2.73360004e+01 4.07999992e+01 7.75199986e+00 3.18239994e+01</_>
    <_>
      9.09840012e+01 1.04447998e+02 1.05671997e+02 1.19136002e+02</_>
    <_>
      7.18079987e+01 9.75120010e+01 1.01592003e+02 1.27295998e+02</_>
    <_>
      1.21584000e+02 3.06000004e+01 5.67120018e+01 3.63120003e+01</_>
    <_>
      3.99840012e+01 2.44799995e+00 3.67200012e+01 2.44799995e+00</_>
    <_>
      1.22399998e+00 7.46640015e+01 0. 8.03759995e+01</_>
    <_>
      1.14239998e+01 9.18000031e+01 8.40479965e+01 6.52799988e+01</_>
    <_>
      4.52879982e+01 6.52799988e+01 4.89599991e+01 7.83359985e+01</_>
    <_>
      6.73199997e+01 4.40639992e+01 3.75359993e+01 5.05919991e+01</_>
    <_>
      1.04040001e+02 5.75279999e+01 5.54879990e+01 1.19952003e+02</_>
    <_>
      6.65039978e+01 1.79519997e+01 3.50880013e+01 3.87599983e+01</_>
    <_>
      4.48799992e+00 1.07711998e+02 7.34400024e+01 8.44560013e+01</_>
    <_>
      9.99599991e+01 3.95760002e+01 3.01919994e+01 1.21991997e+02</_>
    <_>
      4.73279991e+01 3.67199993e+00 1.30559998e+02 1.71359997e+01</_>
    <_>
      9.58799973e+01 1.01183998e+02 1.04856003e+02 1.13015999e+02</_>
    <_>
      8.97600021e+01 2.73360004e+01 2.97840004e+01 4.24319992e+01</_>
    <_>
      2.24400005e+01 1.13424004e+02 1.10568001e+02 1.20360001e+02</_>
    <_>
      7.62959976e+01 1.95839996e+01 1.83600006e+01 7.91520004e+01</_>
    <_>
      4.85519981e+01 0. 0. 5.01839981e+01</_>
    <_>
      1.63199997e+01 1.83600006e+01 2.44799995e+00 2.85599995e+00</_>
    <_>
      7.50719986e+01 4.89599991e+01 1.04040001e+02 6.93600006e+01</_>
    <_>
      2.57040005e+01 1.59119997e+01 1.63199997e+00 8.15999985e-01</_>
    <_>
      5.75279999e+01 5.30399990e+00 1.01999998e+01 0.</_>
    <_>
      2.28479996e+01 1.63199997e+01 8.56799984e+00 7.34399986e+00</_>
    <_>
      3.22319984e+01 1.13832001e+02 7.99680023e+01 1.29744003e+02</_>
    <_>
      9.42480011e+01 1.08120003e+02 1.00367996e+02 1.18727997e+02</_>
    <_>
      2.81520004e+01 7.34400024e+01 6.24239998e+01 6.36479988e+01</_>
    <_>
      1.05264000e+02 1.28927994e+02 1.30559998e+02 1.34231995e+02</_>
    <_>
      1.00776001e+02 4.03919983e+01 6.12000008e+01 5.30399990e+00</_>
    <_>
      4.48800011e+01 8.15999985e+00 4.12080002e+01 2.89680004e+01</_>
    <_>
      2.81520004e+01 4.61040001e+01 7.91520004e+01 1.24440002e+02</_>
    <_>
      1.22399998e+01 3.26399994e+01 2.69279995e+01 6.48720016e+01</_>
    <_>
      2.32560005e+01 4.07999992e-01 2.08080006e+01 4.07999992e-01</_>
    <_>
      0. 5.67120018e+01 1.01999998e+01 1.17503998e+02</_>
    <_>
      9.09840012e+01 1.23624001e+02 1.27704002e+02 1.21584000e+02</_>
    <_>
      3.59039993e+01 8.24160004e+01 0. 5.22239990e+01</_>
    <_>
      4.44720001e+01 1.91760006e+01 1.50959997e+01 1.87679996e+01</_>
    <_>
      0. 8.15999985e+00 3.06000004e+01 8.48639984e+01</_>
    <_>
      6.36479988e+01 3.83520012e+01 6.65039978e+01 9.18000031e+01</_>
    <_>
      1.34639997e+01 1.95839996e+01 1.55039997e+01 3.99840012e+01</_>
    <_>
      0. 0. 7.38479996e+01 7.95599976e+01</_>
    <_>
      4.03919983e+01 2.44799995e+01 3.79440002e+01 1.95839996e+01</_>
    <_>
      9.79199982e+00 4.20239983e+01 1.26479998e+01 4.77360001e+01</_>
    <_>
      2.12159996e+01 3.99840012e+01 3.10079994e+01 1.67280006e+01</_>
    <_>
      5.54879990e+01 1.67280006e+01 2.93759995e+01 2.57040005e+01</_>
    <_>
      102. 1.28112000e+02 1.30151993e+02 1.25255997e+02</_>
    <_>
      8.97599983e+00 2.03999996e+01 1.10159998e+01 7.83359985e+01</_>
    <_>
      1.42799997e+01 4.89599991e+00 4.24319992e+01 7.67040024e+01</_>
    <_>
      4.77360001e+01 1.30559998e+02 5.50800018e+01 1.39128006e+02</_>
    <_>
      4.56959991e+01 5.05919991e+01 3.38639984e+01 4.32480011e+01</_>
    <_>
      1.12608002e+02 1.29744003e+02 1.21991997e+02 9.34319992e+01</_>
    <_>
      7.26240005e+01 5.05919991e+01 5.18160019e+01 1.11792000e+02</_>
    <_>
      3.95760002e+01 5.58959999e+01 6.44639969e+01 1.36272003e+02</_>
    <_>
      1.21991997e+02 2.81520004e+01 1.02816002e+02 0.</_>
    <_>
      5.71199989e+00 1.55039997e+01 0. 4.89599991e+00</_>
    <_>
      1.10160004e+02 9.95520020e+01 9.99599991e+01 1.31376007e+02</_>
    <_>
      4.97760010e+01 4.93680000e+01 1.67280006e+01 1.35863998e+02</_>
    <_>
      6.20159988e+01 2.08080006e+01 1.30559998e+02 5.22239990e+01</_>
    <_>
      1.21991997e+02 9.91439972e+01 1.08528000e+02 1.08935997e+02</_>
    <_>
      4.89599991e+01 6.20159988e+01 5.30400009e+01 1.15056000e+02</_>
    <_>
      1.34639997e+01 2.97840004e+01 2.69279995e+01 3.87599983e+01</_>
    <_>
      4.32480011e+01 1.55039997e+01 1.34639997e+01 2.81520004e+01</_>
    <_>
      1.11792000e+02 9.09840012e+01 6.89520035e+01 4.07999992e+00</_>
    <_>
      1.08120003e+02 1.17912003e+02 1.26888000e+02 1.37496002e+02</_>
    <_>
      1.14239998e+01 9.26159973e+01 9.30240021e+01 6.73199997e+01</_>
    <_>
      5.42639999e+01 0. 1.55039997e+01 0.</_>
    <_>
      1.04856003e+02 1.08935997e+02 1.00367996e+02 1.03632004e+02</_>
    <_>
      5.99760017e+01 7.46640015e+01 7.50719986e+01 1.29744003e+02</_>
    <_>
      2.93759995e+01 1.99920006e+01 3.79440002e+01 1.67280006e+01</_>
    <_>
      1.13424004e+02 3.18239994e+01 1.04856003e+02 6.81360016e+01</_>
    <_>
      2.08080006e+01 3.10079994e+01 3.87599983e+01 1.71359997e+01</_>
    <_>
      3.75359993e+01 8.56799984e+00 2.69279995e+01 7.34399986e+00</_>
    <_>
      7.34400024e+01 5.91599998e+01 4.40639992e+01 3.75359993e+01</_>
    <_>
      1.75440006e+01 3.01919994e+01 2.03999996e+01 4.52879982e+01</_>
    <_>
      3.06000004e+01 1.95839996e+01 1.79519997e+01 2.89680004e+01</_>
    <_>
      3.50880013e+01 1.14239998e+02 8.07839966e+01 1.07304001e+02</_>
    <_>
      7.05839996e+01 8.07839966e+01 9.09840012e+01 6.24239998e+01</_>
    <_>
      7.99680023e+01 1.27704002e+02 1.30151993e+02 1.24031998e+02</_>
    <_>
      8.32320023e+01 4.97760010e+01 9.71039963e+01 7.09919968e+01</_>
    <_>
      7.62959976e+01 1.67280006e+01 2.36639996e+01 3.83520012e+01</_>
    <_>
      7.34400024e+01 2.65200005e+01 6.11999989e+00 9.50640030e+01</_>
    <_>
      1.17912003e+02 8.32320023e+01 8.03759995e+01 8.44560013e+01</_>
    <_>
      4.97760010e+01 1.91760006e+01 3.99840012e+01 1.18319998e+01</_>
    <_>
      1.99920006e+01 2.12159996e+01 3.18239994e+01 3.14160004e+01</_>
    <_>
      4.24319992e+01 1.26479998e+01 3.22319984e+01 1.26479998e+01</_>
    <_>
      0. 1.06896004e+02 9.38399982e+00 1.33824005e+02</_>
    <_>
      1.22399998e+00 9.46559982e+01 7.46640015e+01 7.91520004e+01</_>
    <_>
      3.46800003e+01 2.24400005e+01 2.32560005e+01 5.18160019e+01</_>
    <_>
      7.95599976e+01 9.58799973e+01 7.05839996e+01 1.16279999e+02</_>
    <_>
      1.04040001e+02 1.26888000e+02 1.20767998e+02 1.39128006e+02</_>
    <_>
      5.87519989e+01 1.71359997e+01 2.73360004e+01 7.75199986e+00</_>
    <_>
      3.34560013e+01 4.36559982e+01 5.83440018e+01 6.40559998e+01</_>
    <_>
      2.48880005e+01 2.44799995e+01 1.91760006e+01 4.16160011e+01</_>
    <_>
      1.83600006e+01 6.56880035e+01 5.87519989e+01 1.26480003e+02</_>
    <_>
      7.05839996e+01 7.14000015e+01 1.13424004e+02 1.20360001e+02</_>
    <_>
      6.40559998e+01 2.52959995e+01 1.10159998e+01 8.36399994e+01</_>
    <_>
      9.71039963e+01 1.30559998e+02 1.19952003e+02 1.35455994e+02</_>
    <_>
      8.97599983e+00 6.81360016e+01 6.65039978e+01 1.32600006e+02</_>
    <_>
      5.30400009e+01 6.69120026e+01 8.56800003e+01 1.83600006e+01</_>
    <_>
      0. 3.38639984e+01 9.38399982e+00 9.95520020e+01</_>
    <_>
      8.97600021e+01 8.73119965e+01 8.48639984e+01 1.15056000e+02</_>
    <_>
      6.69120026e+01 1.91760006e+01 7.34399986e+00 4.16160011e+01</_>
    <_>
      1.22400002e+02 8.07839966e+01 1.14648003e+02 6.16080017e+01</_>
    <_>
      0. 1.83600006e+01 4.69199982e+01 3.38639984e+01</_>
    <_>
      5.99760017e+01 5.50800018e+01 9.58799973e+01 1.11384003e+02</_>
    <_>
      2.73360004e+01 1.59119997e+01 1.63199997e+01 8.56799984e+00</_>
    <_>
      5.75279999e+01 1.95839996e+01 1.06079998e+01 3.99840012e+01</_>
    <_>
      4.07999992e-01 6.52799988e+00 7.91520004e+01 1.09751999e+02</_>
    <_>
      7.18079987e+01 5.63040009e+01 9.79199982e+01 6.03839989e+01</_>
    <_>
      5.46720009e+01 6.60960007e+01 1.99920006e+01 8.15999985e+01</_>
    <_>
      0. 1.22399998e+00 7.67040024e+01 1.27295998e+02</_>
    <_>
      9.30240021e+01 1.19136002e+02 5.30400009e+01 3.79440002e+01</_>
    <_>
      1.22399998e+01 8.36399994e+01 9.95520020e+01 8.64960022e+01</_>
    <_>
      5.42639999e+01 7.91520004e+01 3.42719994e+01 1.83600006e+01</_>
    <_>
      1.22400002e+02 9.46559982e+01 1.29744003e+02 5.14080009e+01</_>
    <_>
      1.15872002e+02 5.18160019e+01 9.30240021e+01 5.87519989e+01</_>
    <_>
      6.48720016e+01 1.14239998e+01 2.69279995e+01 3.01919994e+01</_>
    <_>
      3.26399994e+01 3.83520012e+01 2.57040005e+01 3.87599983e+01</_>
    <_>
      1.50959997e+01 3.30480003e+01 4.03919983e+01 7.22160034e+01</_>
    <_>
      8.44560013e+01 1.22399998e+00 2.03999996e+00 9.46559982e+01</_>
    <_>
      8.24160004e+01 7.46640015e+01 7.87440033e+01 1.08935997e+02</_>
    <_>
      1.42799997e+01 5.50800018e+01 2.69279995e+01 2.20319996e+01</_>
    <_>
      0. 0. 7.50719986e+01 8.56800003e+01</_>
    <_>
      3.54959984e+01 7.87440033e+01 8.32320023e+01 1.01183998e+02</_>
    <_>
      4.40639992e+01 1.17096001e+02 5.05919991e+01 1.34231995e+02</_>
    <_>
      1.22400002e+02 1.16279999e+02 1.03223999e+02 1.17912003e+02</_>
    <_>
      6.81360016e+01 9.62880020e+01 6.48720016e+01 1.37087997e+02</_>
    <_>
      7.95599976e+01 6.77279968e+01 9.26159973e+01 1.99920006e+01</_>
    <_>
      1.30559998e+01 102. 1.00367996e+02 8.07839966e+01</_>
    <_>
      4.07999992e+00 1.26071999e+02 4.81440010e+01 5.67120018e+01</_>
    <_>
      1.15463997e+02 1.30559998e+02 1.30559998e+02 1.39128006e+02</_>
    <_>
      4.07999992e+01 2.28479996e+01 1.38719997e+01 8.15999985e+00</_>
    <_>
      6.44639969e+01 1.13832001e+02 1.22400002e+02 1.30968002e+02</_>
    <_>
      2.85599995e+01 1.10159998e+01 2.48880005e+01 3.87599983e+01</_>
    <_>
      6.32400017e+01 9.62880020e+01 1.30559998e+02 1.23624001e+02</_>
    <_>
      6.24239998e+01 9.09840012e+01 1.18320000e+02 1.24848000e+02</_>
    <_>
      1.22400002e+02 7.91520004e+01 1.26888000e+02 3.38639984e+01</_>
    <_>
      8.97600021e+01 9.62880020e+01 1.06896004e+02 7.99680023e+01</_>
    <_>
      8.15999985e+00 3.14160004e+01 2.85599995e+00 4.77360001e+01</_>
    <_>
      1.11792000e+02 6.24239998e+01 9.34319992e+01 5.67120018e+01</_>
    <_>
      1.55039997e+01 4.85519981e+01 6.16080017e+01 3.63120003e+01</_>
    <_>
      0. 7.50719986e+01 0. 8.64960022e+01</_>
    <_>
      2.81520004e+01 5.54879990e+01 1.00367996e+02 7.87440033e+01</_>
    <_>
      2.28479996e+01 1.63199997e+01 2.12159996e+01 1.38719997e+01</_>
    <_>
      6.12000008e+01 3.22319984e+01 4.03919983e+01 8.32320023e+01</_>
    <_>
      5.58959999e+01 8.15999985e+01 1.30559998e+02 1.39128006e+02</_>
    <_>
      1.12199997e+02 9.99599991e+01 1.25255997e+02 9.83280029e+01</_>
    <_>
      2.81520004e+01 3.71279984e+01 3.34560013e+01 3.34560013e+01</_>
    <_>
      4.77360001e+01 1.07304001e+02 6.32400017e+01 1.35455994e+02</_>
    <_>
      2.65200005e+01 9.50640030e+01 1.05264000e+02 6.69120026e+01</_>
    <_>
      3.26399994e+01 6.77279968e+01 9.46559982e+01 1.37496002e+02</_>
    <_>
      8.15999985e+01 5.05919991e+01 5.63040009e+01 1.15056000e+02</_>
    <_>
      1.87679996e+01 8.56799984e+00 1.87679996e+01 1.42799997e+01</_>
    <_>
      3.63120003e+01 4.36559982e+01 7.09919968e+01 7.83359985e+01</_>
    <_>
      4.89599991e+00 1.59119997e+01 5.83440018e+01 1.31376007e+02</_>
    <_>
      3.34560013e+01 4.32480011e+01 2.69279995e+01 1.95839996e+01</_>
    <_>
      2.36639996e+01 3.71279984e+01 3.91679993e+01 7.42559967e+01</_>
    <_>
      8.48639984e+01 4.52879982e+01 1.26479998e+01 7.67040024e+01</_>
    <_>
      1.18319998e+01 3.63120003e+01 3.26399994e+01 2.81520004e+01</_>
    <_>
      1.87679996e+01 1.91760006e+01 2.85599995e+01 4.28400002e+01</_>
    <_>
      5.75279999e+01 1.26479998e+01 1.63199997e+01 1.75440006e+01</_>
    <_>
      7.34399986e+00 7.75199986e+00 5.67120018e+01 1.17503998e+02</_>
    <_>
      6.93600006e+01 8.15999985e+01 5.38559990e+01 5.50800018e+01</_>
    <_>
      3.10079994e+01 5.14080009e+01 4.48800011e+01 4.89599991e+01</_>
    <_>
      6.12000008e+01 1.95839996e+01 1.46879997e+01 3.30480003e+01</_>
    <_>
      1.22400002e+02 1.25664001e+02 9.71039963e+01 4.40639992e+01</_>
    <_>
      1.63199997e+00 4.07999992e+00 2.93759995e+01 4.07999992e+01</_>
    <_>
      6.77279968e+01 9.79199982e+01 6.69120026e+01 1.20360001e+02</_>
    <_>
      2.08080006e+01 2.85599995e+01 1.01999998e+01 1.50959997e+01</_>
    <_>
      1.02407997e+02 1.09344002e+02 1.08935997e+02 1.17096001e+02</_>
    <_>
      1.87679996e+01 8.24160004e+01 1.05264000e+02 8.03759995e+01</_>
    <_>
      3.71279984e+01 3.67200012e+01 1.17912003e+02 1.37496002e+02</_>
    <_>
      4.97760010e+01 7.83359985e+01 5.83440018e+01 6.20159988e+01</_>
    <_>
      4.28400002e+01 6.28320007e+01 6.07919998e+01 4.89599991e+01</_>
    <_>
      5.38559990e+01 7.09919968e+01 6.89520035e+01 6.36479988e+01</_>
    <_>
      3.99840012e+01 6.40559998e+01 6.69120026e+01 4.89599991e+01</_>
    <_>
      3.46800003e+01 6.36479988e+01 8.11920013e+01 51.</_>
    <_>
      4.16160011e+01 6.16080017e+01 7.09919968e+01 6.52799988e+01</_>
    <_>
      3.42719994e+01 8.36399994e+01 7.05839996e+01 7.87440033e+01</_>
    <_>
      3.22319984e+01 5.54879990e+01 5.79360008e+01 4.24319992e+01</_>
    <_>
      3.75359993e+01 5.71199989e+01 6.32400017e+01 3.95760002e+01</_>
    <_>
      3.91679993e+01 6.77279968e+01 7.26240005e+01 3.34560013e+01</_>
    <_>
      4.61040001e+01 7.05839996e+01 7.34400024e+01 5.91599998e+01</_>
    <_>
      4.48800011e+01 6.77279968e+01 6.69120026e+01 5.26320000e+01</_>
    <_>
      4.73279991e+01 7.62959976e+01 7.50719986e+01 6.32400017e+01</_>
    <_>
      3.99840012e+01 6.40559998e+01 7.22160034e+01 5.79360008e+01</_>
    <_>
      3.83520012e+01 5.38559990e+01 6.24239998e+01 4.48800011e+01</_>
    <_>
      3.38639984e+01 6.60960007e+01 7.58880005e+01 4.40639992e+01</_>
    <_>
      5.30400009e+01 6.89520035e+01 7.26240005e+01 7.01760025e+01</_>
    <_>
      5.30400009e+01 6.28320007e+01 5.22239990e+01 7.05839996e+01</_>
    <_>
      6.36479988e+01 7.22160034e+01 7.38479996e+01 8.52720032e+01</_>
    <_>
      4.24319992e+01 5.50800018e+01 5.50800018e+01 5.05919991e+01</_>
    <_>
      3.22319984e+01 7.26240005e+01 8.52720032e+01 4.69199982e+01</_>
    <_>
      5.75279999e+01 1.06487999e+02 8.69039993e+01 5.58959999e+01</_>
    <_>
      3.59039993e+01 5.54879990e+01 6.20159988e+01 51.</_>
    <_>
      3.87599983e+01 6.89520035e+01 7.38479996e+01 4.81440010e+01</_>
    <_>
      4.03919983e+01 6.65039978e+01 6.93600006e+01 4.73279991e+01</_>
    <_>
      51. 6.77279968e+01 7.18079987e+01 6.48720016e+01</_>
    <_>
      3.42719994e+01 6.32400017e+01 6.69120026e+01 3.50880013e+01</_>
    <_>
      3.22319984e+01 6.24239998e+01 7.91520004e+01 4.69199982e+01</_>
    <_>
      3.42719994e+01 5.58959999e+01 5.54879990e+01 4.65120010e+01</_>
    <_>
      4.97760010e+01 5.83440018e+01 5.83440018e+01 5.79360008e+01</_>
    <_>
      4.03919983e+01 6.89520035e+01 6.16080017e+01 4.65120010e+01</_>
    <_>
      4.52879982e+01 6.12000008e+01 6.36479988e+01 5.58959999e+01</_>
    <_>
      5.46720009e+01 6.16080017e+01 7.30319977e+01 8.56800003e+01</_>
    <_>
      5.71199989e+01 8.64960022e+01 7.42559967e+01 7.26240005e+01</_>
    <_>
      3.42719994e+01 5.22239990e+01 5.38559990e+01 4.52879982e+01</_>
    <_>
      5.58959999e+01 7.01760025e+01 7.09919968e+01 7.01760025e+01</_>
    <_>
      3.67200012e+01 5.91599998e+01 6.40559998e+01 3.95760002e+01</_>
    <_>
      5.79360008e+01 8.97600021e+01 8.40479965e+01 8.32320023e+01</_>
    <_>
      5.46720009e+01 6.93600006e+01 6.85439987e+01 6.93600006e+01</_>
    <_>
      3.59039993e+01 6.16080017e+01 5.99760017e+01 4.16160011e+01</_>
    <_>
      4.12080002e+01 6.81360016e+01 6.36479988e+01 4.61040001e+01</_>
    <_>
      3.59039993e+01 5.26320000e+01 6.44639969e+01 4.97760010e+01</_>
    <_>
      3.79440002e+01 5.95680008e+01 6.03839989e+01 4.65120010e+01</_>
    <_>
      3.75359993e+01 6.03839989e+01 5.54879990e+01 4.28400002e+01</_>
    <_>
      4.03919983e+01 7.09919968e+01 8.20080032e+01 6.12000008e+01</_>
    <_>
      3.83520012e+01 6.52799988e+01 6.77279968e+01 5.26320000e+01</_>
    <_>
      4.81440010e+01 6.44639969e+01 6.32400017e+01 6.03839989e+01</_>
    <_>
      4.40639992e+01 5.91599998e+01 6.77279968e+01 5.71199989e+01</_>
    <_>
      4.44720001e+01 6.48720016e+01 7.38479996e+01 6.36479988e+01</_>
    <_>
      4.20239983e+01 6.40559998e+01 6.48720016e+01 4.07999992e+01</_>
    <_>
      4.89599991e+01 6.24239998e+01 6.77279968e+01 6.52799988e+01</_>
    <_>
      4.28400002e+01 5.71199989e+01 5.87519989e+01 5.46720009e+01</_>
    <_>
      3.75359993e+01 5.99760017e+01 6.32400017e+01 4.65120010e+01</_>
    <_>
      3.42719994e+01 6.40559998e+01 5.99760017e+01 4.20239983e+01</_>
    <_>
      4.20239983e+01 5.71199989e+01 6.44639969e+01 5.87519989e+01</_>
    <_>
      5.30400009e+01 6.52799988e+01 7.42559967e+01 6.69120026e+01</_>
    <_>
      5.30400009e+01 7.14000015e+01 7.26240005e+01 6.89520035e+01</_>
    <_>
      3.79440002e+01 6.20159988e+01 6.52799988e+01 4.73279991e+01</_>
    <_>
      4.36559982e+01 6.65039978e+01 6.36479988e+01 5.22239990e+01</_>
    <_>
      4.03919983e+01 6.65039978e+01 6.48720016e+01 6.16080017e+01</_>
    <_>
      3.63120003e+01 6.20159988e+01 7.46640015e+01 5.42639999e+01</_>
    <_>
      4.24319992e+01 7.14000015e+01 8.20080032e+01 5.58959999e+01</_>
    <_>
      3.42719994e+01 7.01760025e+01 7.58880005e+01 3.87599983e+01</_>
    <_>
      6.03839989e+01 9.42480011e+01 9.83280029e+01 8.32320023e+01</_>
    <_>
      3.75359993e+01 51. 5.63040009e+01 4.48800011e+01</_>
    <_>
      4.07999992e+01 6.07919998e+01 5.75279999e+01 5.30400009e+01</_>
    <_>
      3.10079994e+01 6.65039978e+01 7.54800034e+01 3.34560013e+01</_>
    <_>
      4.65120010e+01 5.63040009e+01 6.24239998e+01 4.48800011e+01</_>
    <_>
      3.34560013e+01 5.87519989e+01 6.36479988e+01 4.93680000e+01</_>
    <_>
      4.28400002e+01 6.44639969e+01 6.73199997e+01 4.69199982e+01</_>
    <_>
      4.24319992e+01 6.89520035e+01 7.26240005e+01 5.30400009e+01</_>
    <_>
      51. 6.52799988e+01 7.26240005e+01 6.16080017e+01</_>
    <_>
      3.99840012e+01 6.52799988e+01 6.24239998e+01 3.87599983e+01</_>
    <_>
      4.32480011e+01 6.36479988e+01 6.32400017e+01 5.75279999e+01</_>
    <_>
      5.50800018e+01 8.60879974e+01 7.79280014e+01 6.24239998e+01</_>
    <_>
      5.83440018e+01 9.09840012e+01 7.14000015e+01 7.67040024e+01</_>
    <_>
      3.26399994e+01 5.95680008e+01 7.30319977e+01 4.73279991e+01</_>
    <_>
      51. 7.09919968e+01 7.14000015e+01 6.52799988e+01</_>
    <_>
      3.87599983e+01 6.56880035e+01 7.62959976e+01 5.38559990e+01</_>
    <_>
      4.65120010e+01 6.48720016e+01 7.71119995e+01 6.03839989e+01</_>
    <_>
      3.67200012e+01 6.85439987e+01 5.95680008e+01 4.61040001e+01</_>
    <_>
      3.54959984e+01 7.09919968e+01 6.93600006e+01 3.22319984e+01</_>
    <_>
      3.50880013e+01 7.50719986e+01 6.93600006e+01 3.67200012e+01</_>
    <_>
      3.87599983e+01 6.40559998e+01 6.24239998e+01 5.46720009e+01</_>
    <_>
      4.48800011e+01 6.32400017e+01 6.52799988e+01 5.05919991e+01</_>
    <_>
      5.01839981e+01 7.75199966e+01 7.75199966e+01 5.87519989e+01</_>
    <_>
      3.83520012e+01 5.95680008e+01 5.71199989e+01 4.93680000e+01</_>
    <_>
      3.18239994e+01 7.22160034e+01 8.32320023e+01 4.12080002e+01</_>
    <_>
      4.20239983e+01 5.30400009e+01 5.63040009e+01 4.65120010e+01</_>
    <_>
      4.40639992e+01 5.79360008e+01 6.16080017e+01 6.44639969e+01</_>
    <_>
      3.83520012e+01 5.75279999e+01 5.50800018e+01 5.79360008e+01</_>
    <_>
      5.30400009e+01 9.42480011e+01 8.81279984e+01 7.75199966e+01</_>
    <_>
      3.67200012e+01 6.28320007e+01 6.12000008e+01 4.77360001e+01</_>
    <_>
      4.69199982e+01 6.44639969e+01 7.09919968e+01 6.20159988e+01</_>
    <_>
      3.95760002e+01 6.93600006e+01 6.60960007e+01 4.20239983e+01</_>
    <_>
      3.99840012e+01 6.85439987e+01 9.99599991e+01 5.83440018e+01</_>
    <_>
      3.87599983e+01 8.03759995e+01 7.22160034e+01 4.56959991e+01</_>
    <_>
      4.48800011e+01 5.75279999e+01 5.99760017e+01 5.38559990e+01</_>
    <_>
      4.40639992e+01 7.58880005e+01 7.99680023e+01 5.71199989e+01</_>
    <_>
      5.14080009e+01 7.30319977e+01 7.26240005e+01 7.09919968e+01</_>
    <_>
      3.63120003e+01 7.87440033e+01 7.22160034e+01 6.81360016e+01</_>
    <_>
      3.50880013e+01 5.79360008e+01 5.63040009e+01 4.20239983e+01</_>
    <_>
      3.38639984e+01 6.65039978e+01 7.01760025e+01 4.61040001e+01</_>
    <_>
      5.14080009e+01 7.54800034e+01 9.34319992e+01 6.93600006e+01</_>
    <_>
      4.36559982e+01 6.44639969e+01 6.07919998e+01 5.95680008e+01</_>
    <_>
      3.54959984e+01 6.60960007e+01 9.42480011e+01 6.48720016e+01</_>
    <_>
      4.65120010e+01 7.22160034e+01 6.28320007e+01 4.40639992e+01</_>
    <_>
      4.12080002e+01 5.42639999e+01 6.60960007e+01 4.93680000e+01</_>
    <_>
      4.32480011e+01 7.38479996e+01 8.32320023e+01 5.50800018e+01</_>
    <_>
      4.36559982e+01 6.48720016e+01 7.22160034e+01 5.75279999e+01</_>
    <_>
      5.34480019e+01 7.34400024e+01 6.32400017e+01 6.81360016e+01</_>
    <_>
      4.73279991e+01 7.14000015e+01 7.38479996e+01 6.28320007e+01</_>
    <_>
      5.54879990e+01 7.05839996e+01 6.44639969e+01 8.20080032e+01</_>
    <_>
      4.24319992e+01 6.60960007e+01 5.83440018e+01 5.05919991e+01</_>
    <_>
      4.07999992e+01 6.24239998e+01 7.87440033e+01 5.26320000e+01</_>
    <_>
      4.16160011e+01 5.95680008e+01 5.99760017e+01 4.44720001e+01</_>
    <_>
      4.52879982e+01 7.22160034e+01 6.44639969e+01 8.48639984e+01</_>
    <_>
      4.20239983e+01 7.22160034e+01 7.14000015e+01 51.</_>
    <_>
      4.07999992e+01 6.52799988e+01 6.69120026e+01 6.24239998e+01</_>
    <_>
      3.79440002e+01 5.83440018e+01 6.36479988e+01 5.50800018e+01</_>
    <_>
      4.03919983e+01 6.24239998e+01 6.85439987e+01 4.97760010e+01</_>
    <_>
      3.83520012e+01 5.71199989e+01 5.54879990e+01 4.97760010e+01</_>
    <_>
      5.01839981e+01 6.12000008e+01 6.36479988e+01 6.07919998e+01</_>
    <_>
      5.75279999e+01 5.71199989e+01 5.67120018e+01 8.85360031e+01</_>
    <_>
      4.97760010e+01 8.07839966e+01 7.62959976e+01 5.87519989e+01</_>
    <_>
      4.93680000e+01 6.97679977e+01 7.01760025e+01 5.91599998e+01</_>
    <_>
      5.01839981e+01 7.46640015e+01 6.32400017e+01 8.11920013e+01</_>
    <_>
      3.38639984e+01 5.46720009e+01 6.36479988e+01 5.63040009e+01</_>
    <_>
      3.42719994e+01 6.36479988e+01 6.07919998e+01 3.59039993e+01</_>
    <_>
      3.91679993e+01 6.52799988e+01 6.16080017e+01 4.56959991e+01</_>
    <_>
      5.79360008e+01 7.75199966e+01 5.79360008e+01 8.24160004e+01</_>
    <_>
      4.69199982e+01 6.73199997e+01 6.69120026e+01 5.95680008e+01</_>
    <_>
      3.46800003e+01 6.20159988e+01 6.60960007e+01 4.65120010e+01</_>
    <_>
      3.50880013e+01 5.38559990e+01 5.99760017e+01 4.40639992e+01</_>
    <_>
      3.75359993e+01 6.28320007e+01 7.75199966e+01 5.54879990e+01</_>
    <_>
      4.97760010e+01 1.03632004e+02 1.05264000e+02 6.07919998e+01</_>
    <_>
      3.42719994e+01 7.50719986e+01 6.65039978e+01 4.16160011e+01</_>
    <_>
      4.20239983e+01 6.60960007e+01 5.75279999e+01 4.65120010e+01</_>
    <_>
      5.38559990e+01 7.18079987e+01 8.32320023e+01 6.85439987e+01</_>
    <_>
      3.99840012e+01 6.24239998e+01 5.87519989e+01 4.07999992e+01</_>
    <_>
      4.61040001e+01 6.20159988e+01 6.85439987e+01 5.95680008e+01</_>
    <_>
      3.79440002e+01 5.91599998e+01 5.91599998e+01 5.18160019e+01</_>
    <_>
      3.38639984e+01 8.28239975e+01 1.01592003e+02 5.38559990e+01</_>
    <_>
      4.97760010e+01 7.71119995e+01 7.22160034e+01 6.32400017e+01</_>
    <_>
      3.99840012e+01 6.56880035e+01 7.09919968e+01 5.54879990e+01</_>
    <_>
      3.67200012e+01 8.32320023e+01 7.34400024e+01 5.34480019e+01</_>
    <_>
      4.65120010e+01 7.30319977e+01 6.40559998e+01 7.62959976e+01</_>
    <_>
      3.79440002e+01 6.16080017e+01 7.46640015e+01 5.91599998e+01</_>
    <_>
      3.46800003e+01 6.32400017e+01 6.40559998e+01 3.99840012e+01</_>
    <_>
      4.24319992e+01 7.26240005e+01 7.75199966e+01 5.22239990e+01</_>
    <_>
      3.99840012e+01 7.79280014e+01 9.34319992e+01 6.12000008e+01</_>
    <_>
      5.95680008e+01 8.48639984e+01 9.09840012e+01 7.95599976e+01</_>
    <_>
      3.71279984e+01 6.28320007e+01 7.75199966e+01 5.99760017e+01</_>
    <_>
      3.10079994e+01 6.69120026e+01 7.71119995e+01 4.32480011e+01</_>
    <_>
      3.50880013e+01 6.97679977e+01 8.20080032e+01 4.65120010e+01</_>
    <_>
      3.54959984e+01 5.79360008e+01 7.09919968e+01 5.50800018e+01</_>
    <_>
      3.83520012e+01 5.95680008e+01 6.07919998e+01 5.91599998e+01</_>
    <_>
      4.03919983e+01 5.79360008e+01 6.07919998e+01 4.61040001e+01</_>
    <_>
      3.91679993e+01 6.69120026e+01 8.15999985e+01 5.95680008e+01</_>
    <_>
      51. 6.73199997e+01 6.69120026e+01 6.28320007e+01</_>
    <_>
      4.40639992e+01 5.71199989e+01 7.42559967e+01 8.52720032e+01</_>
    <_>
      4.48800011e+01 5.75279999e+01 6.93600006e+01 5.22239990e+01</_>
    <_>
      3.34560013e+01 6.93600006e+01 8.03759995e+01 4.93680000e+01</_>
    <_>
      3.59039993e+01 6.89520035e+01 9.01679993e+01 6.40559998e+01</_>
    <_>
      4.40639992e+01 5.99760017e+01 7.01760025e+01 5.87519989e+01</_>
    <_>
      4.32480011e+01 7.14000015e+01 7.05839996e+01 5.30400009e+01</_>
    <_>
      3.79440002e+01 6.16080017e+01 7.14000015e+01 5.42639999e+01</_>
    <_>
      4.24319992e+01 6.48720016e+01 6.48720016e+01 5.46720009e+01</_>
    <_>
      3.95760002e+01 6.24239998e+01 6.52799988e+01 4.56959991e+01</_>
    <_>
      4.61040001e+01 6.48720016e+01 6.36479988e+01 5.46720009e+01</_>
    <_>
      4.52879982e+01 6.69120026e+01 7.34400024e+01 5.63040009e+01</_>
    <_>
      4.16160011e+01 5.79360008e+01 6.28320007e+01 4.24319992e+01</_>
    <_>
      3.10079994e+01 5.18160019e+01 5.38559990e+01 4.07999992e+01</_>
    <_>
      5.14080009e+01 9.46559982e+01 9.22080002e+01 7.14000015e+01</_>
    <_>
      3.26399994e+01 6.48720016e+01 8.07839966e+01 4.52879982e+01</_>
    <_>
      6.12000008e+01 8.73119965e+01 7.67040024e+01 8.93519974e+01</_>
    <_>
      3.34560013e+01 6.56880035e+01 6.77279968e+01 4.16160011e+01</_>
    <_>
      4.12080002e+01 6.12000008e+01 6.97679977e+01 6.20159988e+01</_>
    <_>
      4.07999992e+01 6.44639969e+01 6.77279968e+01 5.46720009e+01</_>
    <_>
      3.79440002e+01 6.52799988e+01 5.99760017e+01 5.05919991e+01</_>
    <_>
      3.42719994e+01 5.91599998e+01 5.83440018e+01 4.24319992e+01</_>
    <_>
      4.81440010e+01 7.14000015e+01 6.93600006e+01 5.30400009e+01</_>
    <_>
      3.46800003e+01 6.81360016e+01 6.93600006e+01 3.38639984e+01</_>
    <_>
      3.42719994e+01 6.77279968e+01 8.60879974e+01 5.67120018e+01</_>
    <_>
      4.77360001e+01 7.71119995e+01 5.99760017e+01 5.83440018e+01</_>
    <_>
      3.67200012e+01 5.95680008e+01 5.79360008e+01 3.99840012e+01</_>
    <_>
      4.52879982e+01 8.15999985e+01 7.50719986e+01 6.36479988e+01</_>
    <_>
      4.07999992e+01 5.63040009e+01 6.16080017e+01 5.46720009e+01</_>
    <_>
      3.95760002e+01 6.85439987e+01 7.50719986e+01 5.18160019e+01</_>
    <_>
      4.97760010e+01 6.56880035e+01 6.73199997e+01 5.58959999e+01</_>
    <_>
      4.97760010e+01 7.75199966e+01 8.60879974e+01 6.48720016e+01</_>
    <_>
      3.01919994e+01 5.05919991e+01 5.79360008e+01 4.24319992e+01</_>
    <_>
      3.95760002e+01 6.60960007e+01 8.93519974e+01 7.62959976e+01</_>
    <_>
      51. 7.42559967e+01 7.58880005e+01 6.24239998e+01</_>
    <_>
      4.40639992e+01 7.54800034e+01 8.56800003e+01 5.46720009e+01</_>
    <_>
      6.81360016e+01 9.46559982e+01 8.07839966e+01 6.12000008e+01</_>
    <_>
      4.77360001e+01 6.97679977e+01 6.56880035e+01 5.79360008e+01</_>
    <_>
      4.16160011e+01 6.12000008e+01 6.44639969e+01 6.03839989e+01</_>
    <_>
      4.65120010e+01 6.16080017e+01 6.40559998e+01 5.91599998e+01</_>
    <_>
      4.77360001e+01 6.65039978e+01 5.87519989e+01 6.93600006e+01</_>
    <_>
      4.20239983e+01 5.50800018e+01 6.56880035e+01 6.32400017e+01</_>
    <_>
      3.34560013e+01 6.40559998e+01 6.60960007e+01 4.12080002e+01</_>
    <_>
      5.30400009e+01 6.52799988e+01 6.32400017e+01 7.54800034e+01</_>
    <_>
      3.87599983e+01 5.42639999e+01 5.79360008e+01 5.22239990e+01</_>
    <_>
      3.75359993e+01 6.28320007e+01 7.22160034e+01 5.22239990e+01</_>
    <_>
      3.87599983e+01 5.99760017e+01 8.32320023e+01 6.60960007e+01</_>
    <_>
      3.26399994e+01 7.34400024e+01 7.26240005e+01 2.81520004e+01</_>
    <_>
      4.48800011e+01 6.12000008e+01 6.16080017e+01 6.36479988e+01</_>
    <_>
      3.42719994e+01 5.79360008e+01 6.03839989e+01 4.48800011e+01</_>
    <_>
      5.42639999e+01 7.22160034e+01 6.44639969e+01 7.30319977e+01</_>
    <_>
      3.79440002e+01 6.52799988e+01 7.18079987e+01 5.38559990e+01</_>
    <_>
      4.89599991e+01 8.24160004e+01 9.13919983e+01 6.20159988e+01</_>
    <_>
      3.42719994e+01 5.34480019e+01 5.71199989e+01 4.44720001e+01</_>
    <_>
      4.61040001e+01 7.34400024e+01 6.16080017e+01 6.24239998e+01</_>
    <_>
      4.65120010e+01 6.81360016e+01 7.50719986e+01 6.69120026e+01</_>
    <_>
      3.50880013e+01 5.67120018e+01 6.56880035e+01 4.52879982e+01</_>
    <_>
      4.48800011e+01 8.15999985e+01 6.56880035e+01 6.60960007e+01</_>
    <_>
      4.03919983e+01 5.87519989e+01 5.58959999e+01 4.24319992e+01</_>
    <_>
      4.12080002e+01 6.07919998e+01 6.93600006e+01 5.63040009e+01</_>
    <_>
      4.24319992e+01 6.16080017e+01 6.48720016e+01 5.22239990e+01</_>
    <_>
      5.38559990e+01 6.07919998e+01 6.77279968e+01 8.20080032e+01</_>
    <_>
      3.95760002e+01 6.28320007e+01 6.48720016e+01 5.71199989e+01</_>
    <_>
      5.05919991e+01 6.52799988e+01 7.71119995e+01 7.38479996e+01</_>
    <_>
      4.24319992e+01 5.87519989e+01 8.15999985e+01 7.87440033e+01</_>
    <_>
      3.59039993e+01 6.52799988e+01 7.99680023e+01 51.</_>
    <_>
      4.16160011e+01 7.05839996e+01 6.32400017e+01 4.07999992e+01</_>
    <_>
      5.67120018e+01 7.01760025e+01 6.97679977e+01 7.99680023e+01</_>
    <_>
      4.12080002e+01 6.48720016e+01 6.32400017e+01 5.14080009e+01</_>
    <_>
      4.77360001e+01 7.79280014e+01 8.60879974e+01 6.07919998e+01</_>
    <_>
      4.97760010e+01 6.93600006e+01 6.85439987e+01 5.18160019e+01</_>
    <_>
      5.63040009e+01 7.67040024e+01 7.58880005e+01 7.54800034e+01</_>
    <_>
      5.46720009e+01 7.58880005e+01 7.09919968e+01 6.93600006e+01</_>
    <_>
      3.63120003e+01 7.58880005e+01 6.28320007e+01 7.67040024e+01</_>
    <_>
      4.28400002e+01 5.71199989e+01 5.91599998e+01 4.32480011e+01</_>
    <_>
      3.75359993e+01 5.58959999e+01 6.20159988e+01 4.44720001e+01</_>
    <_>
      4.32480011e+01 6.81360016e+01 6.65039978e+01 4.69199982e+01</_>
    <_>
      3.91679993e+01 6.73199997e+01 7.34400024e+01 5.79360008e+01</_>
    <_>
      3.42719994e+01 5.50800018e+01 6.07919998e+01 4.12080002e+01</_>
    <_>
      3.75359993e+01 6.03839989e+01 7.34400024e+01 5.75279999e+01</_>
    <_>
      4.65120010e+01 5.34480019e+01 5.71199989e+01 6.28320007e+01</_>
    <_>
      3.42719994e+01 6.03839989e+01 6.12000008e+01 4.32480011e+01</_>
    <_>
      3.83520012e+01 6.24239998e+01 6.20159988e+01 4.28400002e+01</_>
    <_>
      3.50880013e+01 5.63040009e+01 6.28320007e+01 4.65120010e+01</_>
    <_>
      3.63120003e+01 6.28320007e+01 6.97679977e+01 5.18160019e+01</_>
    <_>
      3.75359993e+01 5.67120018e+01 6.56880035e+01 51.</_>
    <_>
      4.20239983e+01 6.89520035e+01 6.40559998e+01 5.50800018e+01</_>
    <_>
      3.83520012e+01 7.14000015e+01 9.50640030e+01 7.18079987e+01</_>
    <_>
      4.52879982e+01 6.73199997e+01 5.99760017e+01 5.26320000e+01</_>
    <_>
      3.87599983e+01 5.38559990e+01 5.71199989e+01 5.71199989e+01</_>
    <_>
      4.93680000e+01 6.32400017e+01 5.50800018e+01 6.24239998e+01</_>
    <_>
      3.59039993e+01 6.07919998e+01 6.40559998e+01 5.14080009e+01</_>
    <_>
      3.50880013e+01 6.73199997e+01 7.91520004e+01 5.18160019e+01</_>
    <_>
      4.93680000e+01 7.46640015e+01 7.62959976e+01 5.95680008e+01</_>
    <_>
      4.52879982e+01 8.03759995e+01 6.73199997e+01 8.07839966e+01</_>
    <_>
      3.01919994e+01 5.75279999e+01 5.38559990e+01 4.24319992e+01</_>
    <_>
      5.01839981e+01 6.73199997e+01 7.01760025e+01 6.16080017e+01</_>
    <_>
      4.28400002e+01 6.32400017e+01 7.05839996e+01 5.87519989e+01</_>
    <_>
      6.03839989e+01 7.18079987e+01 8.64960022e+01 8.24160004e+01</_>
    <_>
      4.48800011e+01 6.32400017e+01 6.20159988e+01 6.24239998e+01</_>
    <_>
      3.91679993e+01 7.18079987e+01 8.15999985e+01 5.01839981e+01</_>
    <_>
      4.36559982e+01 6.07919998e+01 5.83440018e+01 4.97760010e+01</_>
    <_>
      3.30480003e+01 7.14000015e+01 6.69120026e+01 3.38639984e+01</_>
    <_>
      4.40639992e+01 5.79360008e+01 6.16080017e+01 6.44639969e+01</_>
    <_>
      3.87599983e+01 5.46720009e+01 6.85439987e+01 5.91599998e+01</_>
    <_>
      3.75359993e+01 5.79360008e+01 6.60960007e+01 4.32480011e+01</_>
    <_>
      5.50800018e+01 9.22080002e+01 7.22160034e+01 6.85439987e+01</_>
    <_>
      3.83520012e+01 5.18160019e+01 5.38559990e+01 4.40639992e+01</_>
    <_>
      4.03919983e+01 5.63040009e+01 5.50800018e+01 5.38559990e+01</_>
    <_>
      4.20239983e+01 5.91599998e+01 6.12000008e+01 5.34480019e+01</_>
    <_>
      4.24319992e+01 7.42559967e+01 8.20080032e+01 5.91599998e+01</_>
    <_>
      5.63040009e+01 7.34400024e+01 7.95599976e+01 6.93600006e+01</_>
    <_>
      4.97760010e+01 9.01679993e+01 8.56800003e+01 7.46640015e+01</_>
    <_>
      3.83520012e+01 5.79360008e+01 5.99760017e+01 5.63040009e+01</_>
    <_>
      4.03919983e+01 6.20159988e+01 6.93600006e+01 5.91599998e+01</_>
    <_>
      3.87599983e+01 6.81360016e+01 6.40559998e+01 4.40639992e+01</_>
    <_>
      6.81360016e+01 6.07919998e+01 6.85439987e+01 8.44560013e+01</_>
    <_>
      3.95760002e+01 6.60960007e+01 6.52799988e+01 4.48800011e+01</_>
    <_>
      4.16160011e+01 7.42559967e+01 7.38479996e+01 4.85519981e+01</_>
    <_>
      4.03919983e+01 5.79360008e+01 6.65039978e+01 4.48800011e+01</_>
    <_>
      4.81440010e+01 7.30319977e+01 8.52720032e+01 6.20159988e+01</_>
    <_>
      3.95760002e+01 5.71199989e+01 7.18079987e+01 6.32400017e+01</_>
    <_>
      5.05919991e+01 7.01760025e+01 7.34400024e+01 7.22160034e+01</_>
    <_>
      4.44720001e+01 7.14000015e+01 6.65039978e+01 4.97760010e+01</_>
    <_>
      4.32480011e+01 7.14000015e+01 7.05839996e+01 5.54879990e+01</_>
    <_>
      4.48800011e+01 6.48720016e+01 6.60960007e+01 4.89599991e+01</_>
    <_>
      3.83520012e+01 6.24239998e+01 8.73119965e+01 7.50719986e+01</_>
    <_>
      4.85519981e+01 7.95599976e+01 7.30319977e+01 7.05839996e+01</_>
    <_>
      4.61040001e+01 7.38479996e+01 7.87440033e+01 5.75279999e+01</_>
    <_>
      3.99840012e+01 6.36479988e+01 7.46640015e+01 5.83440018e+01</_>
    <_>
      3.42719994e+01 5.87519989e+01 5.38559990e+01 4.24319992e+01</_>
    <_>
      4.77360001e+01 6.85439987e+01 6.89520035e+01 6.44639969e+01</_>
    <_>
      3.67200012e+01 6.52799988e+01 6.48720016e+01 4.20239983e+01</_>
    <_>
      3.79440002e+01 5.63040009e+01 5.75279999e+01 4.03919983e+01</_>
    <_>
      3.46800003e+01 5.75279999e+01 6.20159988e+01 5.05919991e+01</_>
    <_>
      5.79360008e+01 6.89520035e+01 6.52799988e+01 7.01760025e+01</_>
    <_>
      5.46720009e+01 6.20159988e+01 6.81360016e+01 6.89520035e+01</_>
    <_>
      4.73279991e+01 9.26159973e+01 8.81279984e+01 6.73199997e+01</_>
    <_>
      4.36559982e+01 5.71199989e+01 4.89599991e+01 5.54879990e+01</_>
    <_>
      3.59039993e+01 5.91599998e+01 5.67120018e+01 4.89599991e+01</_>
    <_>
      4.73279991e+01 8.11920013e+01 6.40559998e+01 6.85439987e+01</_>
    <_>
      4.28400002e+01 6.20159988e+01 6.07919998e+01 5.30400009e+01</_>
    <_>
      4.28400002e+01 5.87519989e+01 6.36479988e+01 4.89599991e+01</_>
    <_>
      4.32480011e+01 8.15999985e+01 9.62880020e+01 5.79360008e+01</_>
    <_>
      4.32480011e+01 7.22160034e+01 6.73199997e+01 5.26320000e+01</_>
    <_>
